~o
<STREAMINFO> 1 39
<VECSIZE> 39<NULLD><MFCC_D_A_0><DIAGC>
~s "silst"
<MEAN> 39
 -1.048189e+001 3.083341e-002 1.715672e+000 2.529274e+000 1.279993e+000 3.244241e+000 3.066375e+000 4.208601e+000 4.432598e+000 1.832007e+000 2.320692e+000 1.968547e+000 4.051133e+001 -8.304353e-003 1.980340e-002 3.475241e-003 3.219137e-003 4.184036e-003 2.317507e-002 1.113105e-002 -2.025977e-003 7.362131e-003 2.507531e-002 -3.706687e-003 -2.692944e-003 -7.654373e-002 4.012825e-003 -2.175988e-005 8.384564e-003 -8.018117e-003 -5.677478e-003 -1.169235e-002 -1.817898e-002 -2.152284e-002 -1.993710e-002 -2.002718e-002 -1.414611e-002 -9.339653e-003 3.129615e-002
<VARIANCE> 39
 6.542075e+000 1.877864e+001 1.415459e+001 1.683837e+001 1.944722e+001 2.015282e+001 2.248252e+001 2.216657e+001 2.058752e+001 2.059793e+001 1.850173e+001 1.596632e+001 5.970266e+001 1.521495e-001 3.843088e-001 5.293011e-001 7.134804e-001 9.299950e-001 1.153787e+000 1.317316e+000 1.475033e+000 1.511874e+000 1.469840e+000 1.375259e+000 1.259797e+000 2.314378e-001 3.381549e-002 7.143020e-002 1.095995e-001 1.504676e-001 1.966615e-001 2.429197e-001 2.784644e-001 3.091902e-001 3.176782e-001 3.083381e-001 2.875649e-001 2.634535e-001 4.246856e-002
<GCONST> 8.309144e+001
~h "C"
<BEGINHMM>
<NUMSTATES> 5
<STATE> 2
<NUMMIXES> 2
<MIXTURE> 1 4.503672e-001
<MEAN> 39
 -4.167237e+000 6.343728e-001 9.360749e+000 -2.081108e+000 -8.979823e+000 -5.920841e+000 -6.843015e+000 -3.253386e+000 -2.555040e+000 -3.536050e+000 -1.242927e+000 -2.362319e-001 4.970464e+001 -1.811532e+000 1.108934e+000 -1.090034e+000 9.788358e-001 2.248186e+000 2.030932e+000 2.000694e+000 1.080773e+000 1.156353e+000 9.713299e-001 8.184550e-001 5.512817e-001 -3.087483e+000 -3.675766e-002 -3.186413e-001 -6.017450e-001 -2.715946e-001 3.886307e-001 2.849230e-001 1.373983e-001 2.223134e-001 3.041437e-001 4.752670e-001 1.658161e-001 -1.183691e-001 1.905055e-001
<VARIANCE> 39
 2.076688e+001 3.232975e+001 6.148139e+001 4.155808e+001 6.817892e+001 6.021305e+001 5.877224e+001 6.587238e+001 4.624852e+001 4.369976e+001 3.735804e+001 3.232299e+001 7.734254e+001 2.318228e+000 3.243057e+000 5.964046e+000 4.168331e+000 6.055242e+000 5.213997e+000 5.483078e+000 5.277916e+000 5.073825e+000 4.902873e+000 3.870249e+000 3.455583e+000 2.761234e+000 3.472116e-001 4.988302e-001 1.187406e+000 6.458180e-001 1.246480e+000 1.058439e+000 9.157366e-001 7.898070e-001 7.839761e-001 9.175867e-001 6.843526e-001 6.189344e-001 8.829484e-001
<GCONST> 1.371621e+002
<MIXTURE> 2 5.496281e-001
<MEAN> 39
 -1.016561e+001 1.302892e+000 3.051470e+000 -4.839519e-001 3.251935e-001 1.181668e+000 2.187331e-001 2.378796e+000 3.241976e+000 2.036732e+000 2.311239e+000 1.628779e+000 4.087329e+001 -2.529374e+000 -5.778397e-001 5.104441e-001 -1.072550e+000 1.268970e+000 9.129963e-001 4.044474e-001 6.281846e-001 6.696349e-001 3.155260e-001 5.850618e-001 6.934626e-002 1.213051e+000 -5.938011e-001 -1.185915e-001 6.210620e-001 -4.552713e-001 -3.676293e-001 -3.488702e-001 -4.028079e-001 -3.706830e-001 -3.366674e-001 -4.456660e-001 -1.760526e-001 -1.339559e-001 1.316898e+000
<VARIANCE> 39
 1.533896e+001 1.260427e+001 1.803221e+001 2.212362e+001 2.394988e+001 2.607034e+001 2.771385e+001 2.494308e+001 2.556421e+001 2.290648e+001 1.997345e+001 1.732030e+001 4.653114e+001 4.017910e+000 2.351468e+000 3.462332e+000 3.120214e+000 3.204508e+000 3.352480e+000 3.481887e+000 3.248738e+000 2.687593e+000 3.095128e+000 2.244912e+000 2.027640e+000 5.994074e+000 4.460005e-001 3.489747e-001 4.788905e-001 4.646456e-001 5.514672e-001 5.832146e-001 5.478493e-001 4.985918e-001 5.330781e-001 5.116853e-001 3.914939e-001 3.920161e-001 4.955488e-001
<GCONST> 1.171448e+002
<STATE> 3
<NUMMIXES> 2
<MIXTURE> 1 5.629420e-001
<MEAN> 39
 -2.583735e+001 -6.813474e-001 8.684268e+000 -7.980643e+000 3.657303e+000 1.999055e+000 -1.006020e+000 2.215418e+000 2.998408e+000 1.247588e-001 3.069628e+000 9.333214e-001 5.508950e+001 -2.740310e+000 1.088709e-001 9.667031e-001 -6.454892e-001 -2.162636e-001 3.298906e-001 3.265335e-001 4.272063e-004 -5.345145e-003 -3.121318e-001 3.211012e-001 9.739152e-002 2.441025e+000 1.469784e+000 2.161482e-001 -1.765530e-001 6.605956e-001 -7.279312e-001 -3.871558e-001 -3.466972e-003 -9.245744e-002 -1.382523e-001 -2.120904e-002 -1.417266e-001 9.477118e-002 -9.831233e-001
<VARIANCE> 39
 4.247264e+001 4.490227e+001 3.756413e+001 3.295144e+001 4.016344e+001 3.888802e+001 3.953683e+001 3.462125e+001 2.725963e+001 2.495403e+001 2.172300e+001 2.031822e+001 5.401311e+001 1.017978e+001 2.978544e+000 3.148204e+000 3.754480e+000 2.997195e+000 2.690299e+000 2.667125e+000 2.881743e+000 2.478310e+000 2.519504e+000 2.164606e+000 1.915385e+000 9.500177e+000 1.125748e+000 7.861074e-001 6.366624e-001 5.768328e-001 7.823471e-001 7.727783e-001 6.680038e-001 6.882190e-001 5.651579e-001 5.487909e-001 4.648759e-001 4.287237e-001 1.167136e+000
<GCONST> 1.280087e+002
<MIXTURE> 2 4.370552e-001
<MEAN> 39
 -2.685056e+001 2.055858e-001 1.129722e+001 -6.246032e+000 -9.419079e-001 2.755901e+000 7.857940e-001 2.012531e+000 3.364211e+000 -6.219862e-001 4.093989e+000 1.974541e+000 5.588453e+001 2.645809e+000 2.682041e-001 6.009967e-001 7.107679e-001 -2.179502e+000 -1.942991e+000 -7.734345e-001 -6.175971e-001 -7.952896e-001 -4.988618e-001 -4.036200e-001 9.912924e-002 -7.640379e-001 2.117115e+000 -2.037132e-001 -4.251793e-001 1.596102e-001 -4.837198e-001 -8.555914e-001 -7.460756e-001 -2.674564e-001 -3.366313e-001 -4.021003e-002 -4.461643e-001 -2.412401e-001 -7.516154e-001
<VARIANCE> 39
 3.830359e+001 3.541444e+001 4.602261e+001 3.815692e+001 4.995750e+001 4.087432e+001 4.528949e+001 4.028774e+001 3.565159e+001 3.491372e+001 2.393699e+001 2.289330e+001 6.528745e+001 9.654422e+000 2.880834e+000 4.226477e+000 3.790008e+000 6.076096e+000 5.421646e+000 4.957689e+000 4.725689e+000 3.982739e+000 3.615651e+000 2.935299e+000 2.820559e+000 6.062970e+000 1.082317e+000 7.395150e-001 9.289297e-001 8.563854e-001 1.213911e+000 1.027244e+000 8.699054e-001 9.722829e-001 7.920847e-001 8.019952e-001 6.599941e-001 6.186063e-001 1.055492e+000
<GCONST> 1.367407e+002
<STATE> 4
<NUMMIXES> 2
<MIXTURE> 1 5.238664e-001
<MEAN> 39
 -6.493934e+000 -2.497686e+000 9.479136e+000 -4.273409e+000 -9.694227e+000 -9.088290e+000 -6.716446e+000 -9.026776e-001 -1.617456e+000 -2.136006e+000 -8.246737e-001 -5.504770e-001 5.303081e+001 1.959090e+000 6.133990e-001 -1.720346e+000 1.294619e+000 1.285475e+000 9.679014e-001 -9.105354e-002 -5.353838e-001 -7.568447e-002 8.750698e-002 -7.834321e-001 -6.628511e-001 -1.643540e+000 -1.053932e+000 4.288798e-001 -1.843913e-001 5.353732e-002 8.178403e-001 1.012866e+000 5.415311e-001 -5.177400e-002 1.629885e-001 7.718404e-002 2.709006e-001 9.324002e-002 -2.449661e-001
<VARIANCE> 39
 5.802649e+001 4.202358e+001 6.620875e+001 6.685483e+001 1.122504e+002 9.070034e+001 9.209485e+001 6.912434e+001 8.631981e+001 5.655160e+001 4.790787e+001 5.382979e+001 8.788073e+001 4.609966e+000 3.590732e+000 3.596883e+000 3.424558e+000 6.225464e+000 5.894244e+000 5.810238e+000 4.501559e+000 5.324550e+000 4.271782e+000 3.646373e+000 3.524866e+000 3.195580e+000 7.137059e-001 8.099470e-001 1.030953e+000 9.296814e-001 1.682815e+000 1.451632e+000 1.496073e+000 1.175395e+000 1.382975e+000 1.029089e+000 8.994324e-001 8.522526e-001 7.198835e-001
<GCONST> 1.463325e+002
<MIXTURE> 2 4.761339e-001
<MEAN> 39
 -1.137909e+001 -2.341958e-001 1.090982e+001 -6.456122e+000 -9.571204e+000 -7.675024e+000 -5.750601e+000 -1.215960e+000 -1.052931e+000 -2.609441e+000 9.709815e-001 9.070914e-001 5.330603e+001 5.596779e+000 -1.226910e+000 -2.055837e-001 -2.023610e-001 -3.131363e+000 -2.967630e+000 -2.306166e+000 -1.049237e+000 -1.300924e+000 -6.795142e-001 -1.592683e+000 -7.394787e-001 2.514446e-001 -4.155115e-001 -1.764769e-001 -4.208593e-001 1.941126e-002 7.581367e-001 7.460775e-001 2.620229e-001 5.700164e-002 1.322013e-001 1.468010e-001 -1.644018e-001 -2.425280e-001 2.551031e-001
<VARIANCE> 39
 4.126757e+001 3.061821e+001 5.880906e+001 5.187920e+001 7.837292e+001 6.531230e+001 4.971159e+001 5.355462e+001 5.692541e+001 4.326162e+001 3.734819e+001 3.417415e+001 7.722879e+001 2.986670e+000 4.924491e+000 7.310156e+000 5.810907e+000 7.511076e+000 7.219472e+000 6.796667e+000 7.632884e+000 7.099556e+000 6.319629e+000 5.933743e+000 4.640569e+000 2.492591e+000 1.042109e+000 7.415107e-001 8.788577e-001 7.711703e-001 1.393599e+000 1.117327e+000 8.929072e-001 9.978387e-001 9.430342e-001 8.874255e-001 7.957523e-001 6.512676e-001 6.726956e-001
<GCONST> 1.434379e+002
<TRANSP> 5
 0.000000e+000 1.000000e+000 0.000000e+000 0.000000e+000 0.000000e+000
 0.000000e+000 8.525336e-001 1.474665e-001 0.000000e+000 0.000000e+000
 0.000000e+000 0.000000e+000 7.982502e-001 2.017498e-001 0.000000e+000
 0.000000e+000 0.000000e+000 0.000000e+000 7.162434e-001 2.837565e-001
 0.000000e+000 0.000000e+000 0.000000e+000 0.000000e+000 0.000000e+000
<ENDHMM>
~h "E"
<BEGINHMM>
<NUMSTATES> 5
<STATE> 2
<NUMMIXES> 2
<MIXTURE> 1 5.804269e-001
<MEAN> 39
 -5.480217e+000 -5.206276e+000 9.240647e+000 -7.016849e+000 -1.520276e+001 -6.139025e+000 -5.058891e-001 -1.055605e+000 -1.763159e-001 1.207537e+000 -3.647705e-001 4.989146e-001 5.255419e+001 -3.596691e-001 3.165874e-001 5.235885e-001 1.408194e-001 -3.838085e-001 3.284599e-001 6.902772e-001 1.557469e-001 1.034087e-001 4.604755e-001 5.602877e-001 1.730704e-001 -4.833983e-001 6.051760e-002 2.712192e-002 4.921052e-002 -1.009693e-002 1.795853e-001 1.233447e-001 -1.563811e-001 -1.411593e-001 -8.105519e-002 -8.040263e-002 -1.553347e-001 -1.464230e-001 1.338967e-001
<VARIANCE> 39
 4.913839e+001 5.325124e+001 8.068053e+001 9.293108e+001 1.086858e+002 9.338178e+001 9.027457e+001 9.462566e+001 7.560522e+001 7.834512e+001 7.268788e+001 4.494338e+001 1.241075e+002 1.791219e+000 2.767873e+000 4.402792e+000 4.157192e+000 6.621123e+000 4.481078e+000 4.380977e+000 4.700303e+000 4.536314e+000 4.326574e+000 3.508695e+000 2.602370e+000 3.263679e+000 3.317001e-001 4.640833e-001 5.834810e-001 7.000730e-001 9.776795e-001 8.092475e-001 7.521328e-001 8.233142e-001 8.211985e-001 7.505537e-001 6.218197e-001 5.274643e-001 5.271475e-001
<GCONST> 1.399220e+002
<MIXTURE> 2 4.195717e-001
<MEAN> 39
 -9.107588e+000 -6.683716e-001 7.211195e+000 -1.708443e+000 -6.551476e+000 1.183564e+000 1.888153e+000 1.751098e-001 2.807497e+000 3.350354e+000 1.294421e+000 1.431834e+000 4.431616e+001 6.656600e-001 -9.555954e-001 2.320691e+000 -2.310681e+000 -3.312370e+000 -1.536222e+000 -7.608515e-001 -1.345255e+000 -1.235427e+000 2.430350e-002 -7.197656e-001 -6.378524e-001 2.698609e+000 3.347316e-001 -2.758792e-001 3.604698e-001 -7.236040e-001 -7.759266e-001 -6.539077e-001 -1.971131e-001 -1.701034e-001 -3.873903e-001 -5.222646e-002 -2.341806e-001 -1.689549e-001 8.796650e-001
<VARIANCE> 39
 1.336198e+001 1.973997e+001 4.156578e+001 4.830276e+001 6.372369e+001 4.179596e+001 4.538541e+001 4.542327e+001 3.790965e+001 3.555469e+001 2.754844e+001 2.415455e+001 7.222723e+001 2.344404e+000 2.815164e+000 4.485798e+000 6.030961e+000 6.599969e+000 5.437996e+000 4.598518e+000 5.012715e+000 4.513558e+000 4.191897e+000 3.783101e+000 2.849340e+000 4.334956e+000 2.724800e-001 4.063645e-001 7.763171e-001 7.800617e-001 1.209940e+000 7.965983e-001 6.575530e-001 8.273180e-001 6.639361e-001 6.552110e-001 5.692362e-001 4.814249e-001 5.616845e-001
<GCONST> 1.309982e+002
<STATE> 3
<NUMMIXES> 2
<MIXTURE> 1 5.288547e-001
<MEAN> 39
 -1.838369e+000 -6.257441e+000 1.693531e+001 -6.942836e+000 -2.240330e+001 -1.068891e+001 -2.195078e+000 1.168764e+000 -6.377344e+000 -5.723847e-001 3.475905e+000 -2.249906e+000 6.114426e+001 3.834719e-001 -5.748160e-001 9.002784e-001 -7.998448e-001 -1.083704e+000 -5.093361e-001 7.087948e-002 3.360562e-001 -4.787473e-001 1.054233e-001 8.456156e-002 -2.033025e-001 1.365764e+000 -1.581880e-001 2.163724e-001 -6.668786e-001 3.377712e-001 9.165847e-001 4.414273e-001 -4.369530e-002 -1.069730e-001 5.425423e-001 2.295070e-002 -3.634675e-001 9.793922e-002 -4.446435e-001
<VARIANCE> 39
 1.565759e+001 4.061691e+001 7.022745e+001 6.445219e+001 5.234513e+001 8.231142e+001 7.573959e+001 7.049377e+001 7.789728e+001 7.202792e+001 5.363100e+001 4.087047e+001 4.896289e+001 1.618327e+000 2.455729e+000 4.282742e+000 2.846104e+000 4.658079e+000 4.029103e+000 4.038985e+000 4.208136e+000 3.881868e+000 3.725929e+000 2.812540e+000 2.330992e+000 3.028539e+000 2.218798e-001 4.183949e-001 6.195163e-001 5.236358e-001 7.277302e-001 7.760308e-001 7.491414e-001 6.892703e-001 7.421858e-001 6.441424e-001 4.614007e-001 4.685238e-001 3.514045e-001
<GCONST> 1.309723e+002
<MIXTURE> 2 4.711454e-001
<MEAN> 39
 -5.365894e+000 -3.285083e+000 1.799416e+001 -1.988462e+001 -2.341595e+001 -6.552638e+000 -2.920654e+000 -1.133173e+001 -2.439485e+000 6.267445e+000 -6.831237e+000 -2.266518e-001 5.654497e+001 7.510625e-001 -6.748906e-001 8.647153e-001 -1.602262e+000 -1.528350e+000 -9.577335e-001 -6.789054e-002 -4.971062e-001 -1.229306e+000 -2.591116e-001 -1.121875e+000 -6.337594e-001 2.087653e+000 -7.038252e-002 5.121521e-002 -7.653443e-001 1.045171e+000 9.134582e-001 3.175761e-001 9.828497e-002 7.100942e-001 1.577142e-001 -4.692498e-001 3.621601e-001 6.836291e-002 -4.965556e-001
<VARIANCE> 39
 1.358388e+001 3.207356e+001 3.986674e+001 7.428571e+001 6.042930e+001 4.875877e+001 7.886208e+001 5.880434e+001 5.675107e+001 5.725256e+001 4.608272e+001 3.921292e+001 5.603038e+001 1.394872e+000 2.735212e+000 5.195475e+000 7.386642e+000 5.684891e+000 4.561854e+000 4.296257e+000 4.726900e+000 3.679379e+000 4.409542e+000 3.507512e+000 2.445664e+000 3.948747e+000 2.471822e-001 4.304001e-001 6.678481e-001 8.214115e-001 8.247420e-001 6.665813e-001 8.901368e-001 6.406022e-001 6.888857e-001 7.415699e-001 6.051757e-001 4.855957e-001 4.266215e-001
<GCONST> 1.326023e+002
<STATE> 4
<NUMMIXES> 2
<MIXTURE> 1 4.615754e-001
<MEAN> 39
 -1.138566e+000 -6.676851e+000 1.409808e+001 -9.435669e+000 -2.233259e+001 -1.000828e+001 -2.021986e+000 -9.919410e-001 -5.639591e+000 1.280125e-001 -1.939930e+000 -2.239314e+000 6.252021e+001 1.751721e-001 3.455141e-001 -1.286804e+000 1.862757e+000 1.516648e+000 2.133044e-001 -4.778576e-001 5.383179e-001 8.820776e-001 -1.176929e+000 -1.939477e-001 1.174667e-001 -6.841109e-001 -4.634680e-001 4.162109e-001 -1.040350e-001 3.143280e-001 8.405640e-001 4.526900e-001 -1.273470e-001 -1.066055e-001 4.911615e-001 -7.978522e-002 1.626982e-001 1.435794e-001 -5.428344e-001
<VARIANCE> 39
 1.376578e+001 3.999557e+001 4.781348e+001 7.807260e+001 5.511652e+001 6.925518e+001 6.505557e+001 9.787368e+001 5.539006e+001 5.359051e+001 6.645389e+001 3.623932e+001 6.928208e+001 1.272903e+000 2.223271e+000 2.963579e+000 3.507881e+000 4.129136e+000 3.562310e+000 4.216591e+000 4.449225e+000 4.363533e+000 4.395413e+000 4.122101e+000 2.535535e+000 2.295582e+000 3.168938e-001 4.213752e-001 5.934036e-001 5.463156e-001 8.032201e-001 6.914083e-001 7.820891e-001 9.427903e-001 6.219543e-001 6.688266e-001 7.163454e-001 4.758143e-001 2.605477e-001
<GCONST> 1.310423e+002
<MIXTURE> 2 5.384153e-001
<MEAN> 39
 -3.378992e+000 -6.953919e+000 1.629896e+001 -1.581862e+001 -2.153214e+001 -7.737229e+000 -3.705718e+000 -4.269527e+000 -4.667468e+000 1.295762e+000 -2.720277e+000 -1.427730e+000 6.402401e+001 1.248781e-001 2.576809e-002 -1.780075e-001 2.251845e-001 -1.729149e-001 -1.150135e-001 5.030828e-003 -5.311446e-002 -2.503447e-002 -4.025689e-003 -9.376753e-002 -1.037089e-001 8.033510e-002 6.784405e-002 2.634084e-002 -1.567717e-001 3.003549e-001 1.241644e-001 -1.917988e-002 -4.109175e-002 1.271255e-001 4.319198e-002 -1.643482e-001 2.996444e-002 6.440578e-003 -1.545884e-001
<VARIANCE> 39
 1.320855e+001 3.756238e+001 5.191618e+001 9.056954e+001 4.444317e+001 5.712661e+001 6.520191e+001 7.783535e+001 5.663858e+001 6.923130e+001 7.884766e+001 3.548933e+001 6.215594e+001 3.965634e-001 1.061414e+000 1.471536e+000 1.403086e+000 1.283769e+000 1.274498e+000 1.703378e+000 1.703865e+000 1.608592e+000 1.799325e+000 1.396952e+000 1.166941e+000 5.316842e-001 6.911518e-002 1.571843e-001 2.063166e-001 2.308120e-001 2.311472e-001 2.380974e-001 2.985760e-001 2.627224e-001 2.753216e-001 2.979841e-001 2.805089e-001 2.156292e-001 1.096810e-001
<GCONST> 1.048612e+002
<TRANSP> 5
 0.000000e+000 1.000000e+000 0.000000e+000 0.000000e+000 0.000000e+000
 0.000000e+000 6.989618e-001 3.010382e-001 0.000000e+000 0.000000e+000
 0.000000e+000 0.000000e+000 6.235444e-001 3.764556e-001 0.000000e+000
 0.000000e+000 0.000000e+000 0.000000e+000 8.152996e-001 1.847004e-001
 0.000000e+000 0.000000e+000 0.000000e+000 0.000000e+000 0.000000e+000
<ENDHMM>
~h "I"
<BEGINHMM>
<NUMSTATES> 5
<STATE> 2
<NUMMIXES> 2
<MIXTURE> 1 5.693279e-001
<MEAN> 39
 -5.490570e+000 -3.710466e+000 2.477769e+000 -3.097071e+000 -5.508507e+000 -3.254206e+000 -3.827995e+000 6.123873e-001 1.432472e+000 -2.915191e+000 -2.592487e+000 -5.561163e-001 4.741768e+001 -1.768542e-001 1.303290e-001 6.827163e-001 3.134956e-001 -1.603093e-001 -2.142298e-001 1.890811e-001 3.188062e-001 -1.028845e-001 -2.859266e-001 -9.113060e-002 1.406529e-001 -4.392057e-002 1.318371e-001 2.153384e-001 2.294608e-001 -1.747172e-002 -1.385016e-001 -9.748781e-002 -1.479179e-001 -3.670387e-001 -3.441482e-001 -1.217286e-001 -9.848824e-002 -2.640771e-002 1.378326e-001
<VARIANCE> 39
 5.524298e+001 5.280844e+001 6.244492e+001 6.119592e+001 8.407845e+001 6.891284e+001 8.441484e+001 8.542400e+001 7.858868e+001 7.529896e+001 6.440909e+001 4.713332e+001 1.227279e+002 1.604087e+000 2.981571e+000 3.697433e+000 3.444703e+000 4.061945e+000 4.079338e+000 4.314099e+000 5.076268e+000 4.724835e+000 4.610084e+000 4.288453e+000 3.347676e+000 2.415520e+000 3.981387e-001 5.368636e-001 5.808186e-001 6.915333e-001 8.295131e-001 8.584318e-001 9.044299e-001 9.256743e-001 8.936346e-001 8.903754e-001 7.450648e-001 6.037307e-001 5.531890e-001
<GCONST> 1.390047e+002
<MIXTURE> 2 4.306296e-001
<MEAN> 39
 -7.736815e+000 -1.301998e-001 4.557157e+000 -7.822626e-001 -3.956492e+000 -2.421923e+000 -1.184402e+000 1.471489e+000 8.005672e-001 -2.562339e+000 -1.140243e+000 8.876432e-001 4.516498e+001 2.025378e+000 -4.297620e-001 1.215578e+000 -1.416817e+000 -2.382402e+000 -2.129018e+000 -1.904346e+000 -1.072129e+000 -1.717602e+000 -1.591309e+000 -1.599612e+000 -5.942136e-001 2.552098e+000 2.262933e-001 -3.275528e-002 1.489670e-001 -2.065380e-001 -2.846762e-001 -1.341655e-001 -1.975079e-001 -2.749156e-001 -2.081936e-001 -2.280699e-003 -1.353660e-001 -7.529909e-002 4.397032e-001
<VARIANCE> 39
 1.821536e+001 2.716516e+001 3.720329e+001 3.589149e+001 4.730186e+001 5.242615e+001 4.811975e+001 5.161652e+001 4.699109e+001 4.655741e+001 3.658359e+001 3.010580e+001 6.848572e+001 3.139390e+000 4.595933e+000 4.759287e+000 4.949322e+000 5.139998e+000 5.502071e+000 5.545382e+000 7.293095e+000 5.813951e+000 5.512703e+000 4.681639e+000 3.907999e+000 4.163573e+000 4.236943e-001 4.855489e-001 5.304742e-001 5.946806e-001 7.873786e-001 8.952103e-001 7.780141e-001 8.339381e-001 7.660730e-001 8.129824e-001 6.731076e-001 5.581197e-001 5.541846e-001
<GCONST> 1.347443e+002
<STATE> 3
<NUMMIXES> 2
<MIXTURE> 1 5.266620e-001
<MEAN> 39
 -1.643424e-001 -4.638872e+000 6.779771e+000 -5.421002e+000 -1.092879e+001 -8.170573e+000 -8.608576e+000 9.623627e-001 -1.357042e+000 -6.556845e+000 -4.943382e+000 -1.499552e+000 5.756096e+001 2.386586e-001 6.704568e-001 9.892536e-001 4.761979e-001 -4.166429e-001 -1.749615e-001 -2.593700e-001 -7.611705e-001 -7.767200e-001 -3.722546e-001 -1.682720e-001 1.024770e-001 3.036861e-002 -3.502389e-001 5.555657e-001 -8.332898e-002 3.915786e-001 4.393358e-001 5.041275e-001 3.864260e-001 -6.014405e-001 -5.195714e-002 3.646673e-001 1.069212e-001 2.356786e-002 -6.687634e-001
<VARIANCE> 39
 2.104570e+001 5.159253e+001 8.849915e+001 6.392106e+001 8.349520e+001 8.777861e+001 8.412604e+001 9.026056e+001 9.350952e+001 8.421191e+001 6.997997e+001 5.794651e+001 7.819115e+001 1.899150e+000 3.422323e+000 3.663200e+000 3.760995e+000 4.527835e+000 4.405136e+000 4.408679e+000 5.566429e+000 4.370761e+000 4.305210e+000 3.951036e+000 3.283849e+000 3.946916e+000 3.752169e-001 5.436609e-001 7.106126e-001 6.863337e-001 9.894320e-001 1.103510e+000 1.002610e+000 1.161361e+000 1.064996e+000 9.332976e-001 8.628132e-001 7.286593e-001 4.865592e-001
<GCONST> 1.410814e+002
<MIXTURE> 2 4.733294e-001
<MEAN> 39
 -2.960876e+000 -6.787363e-001 1.255771e+001 -8.590611e+000 -1.439769e+001 -7.563844e+000 -5.757765e+000 -6.168822e+000 -7.112068e+000 -3.931709e+000 -5.375003e+000 -8.477944e-001 5.282498e+001 1.029198e+000 4.715403e-001 1.213541e+000 -5.822161e-001 -9.369094e-001 -3.229331e-001 -1.100165e+000 -1.262703e+000 -1.260019e+000 -5.573282e-001 -9.222721e-001 -4.278148e-001 8.880522e-001 -2.949531e-001 2.267191e-001 -5.367366e-001 5.608099e-001 7.411444e-001 4.545130e-001 1.471582e-001 1.394726e-001 4.807196e-001 1.528906e-001 2.415803e-001 1.742923e-002 -4.918952e-001
<VARIANCE> 39
 2.125574e+001 5.209885e+001 9.485925e+001 1.071901e+002 9.201848e+001 8.174112e+001 8.287598e+001 1.068210e+002 7.402956e+001 8.424122e+001 6.765280e+001 5.301040e+001 6.972449e+001 2.944099e+000 3.565947e+000 5.640814e+000 5.843839e+000 7.429626e+000 7.043306e+000 6.036273e+000 6.490537e+000 5.367486e+000 5.250157e+000 4.607942e+000 3.836072e+000 4.372773e+000 4.028909e-001 6.100518e-001 8.459305e-001 1.078871e+000 1.164462e+000 1.101161e+000 1.138769e+000 1.210840e+000 9.083210e-001 1.069093e+000 8.651077e-001 6.944600e-001 4.549498e-001
<GCONST> 1.460029e+002
<STATE> 4
<NUMMIXES> 2
<MIXTURE> 1 4.515000e-001
<MEAN> 39
 -2.304049e+000 1.731789e+000 9.852223e+000 -3.247983e+000 -8.674867e+000 -5.443142e+000 -8.310385e+000 -5.355468e+000 -4.720908e+000 -6.308787e+000 -5.487607e+000 -2.136882e+000 5.136003e+001 1.223268e-001 1.238657e+000 1.930022e-001 8.866921e-001 3.784990e-001 1.383288e-001 -2.924573e-002 -1.191319e+000 -3.397772e-001 -7.547624e-003 -2.550570e-001 -7.251383e-002 -5.763210e-001 -2.165674e-001 -5.788796e-002 -1.486954e-001 -3.405599e-002 2.002319e-002 1.173833e-001 2.720686e-001 4.148435e-003 1.383840e-001 2.870202e-001 1.968586e-001 8.209948e-002 -5.295524e-002
<VARIANCE> 39
 3.119121e+001 5.240491e+001 9.535867e+001 6.135059e+001 8.188718e+001 6.790986e+001 6.793812e+001 8.286864e+001 7.849250e+001 7.532622e+001 6.371203e+001 5.001815e+001 7.930485e+001 2.808666e+000 3.376646e+000 5.194380e+000 5.019327e+000 7.914453e+000 5.760977e+000 5.659197e+000 7.344244e+000 5.448078e+000 5.112733e+000 4.436068e+000 3.735577e+000 4.011298e+000 5.123359e-001 5.663354e-001 7.135102e-001 6.745348e-001 1.164218e+000 8.969809e-001 9.044456e-001 1.138196e+000 8.853668e-001 8.891934e-001 7.893769e-001 6.197804e-001 4.323980e-001
<GCONST> 1.430273e+002
<MIXTURE> 2 5.484602e-001
<MEAN> 39
 -4.022217e+000 -2.466805e+000 7.520035e+000 -3.961225e+000 -9.072186e+000 -5.082333e+000 -4.456806e+000 -3.379312e+000 -4.709264e+000 -5.918410e+000 -3.991434e+000 -1.294834e-001 5.094616e+001 8.251822e-002 2.604579e-001 1.897007e-002 8.665839e-002 -5.850036e-002 1.092855e-001 2.585406e-002 -2.217799e-001 -6.709112e-002 2.036043e-002 -7.451317e-002 -5.287638e-003 -1.354889e-001 -9.691426e-005 4.552148e-002 -1.100697e-004 2.902868e-002 2.353962e-002 -3.159846e-002 -7.476732e-002 3.235452e-002 5.804633e-002 1.647257e-002 8.265937e-003 -1.378572e-002 -4.893993e-002
<VARIANCE> 39
 5.697167e+001 7.213579e+001 6.589739e+001 6.689015e+001 7.572260e+001 6.462202e+001 7.020303e+001 1.108191e+002 7.456503e+001 6.464553e+001 7.545947e+001 5.056533e+001 1.335921e+002 3.831199e-001 8.689114e-001 1.204516e+000 1.211826e+000 1.582444e+000 1.717178e+000 1.870566e+000 2.212220e+000 2.099802e+000 2.001271e+000 1.855524e+000 1.726933e+000 5.087640e-001 8.023454e-002 2.019659e-001 2.440606e-001 2.835245e-001 3.491133e-001 3.608710e-001 3.879188e-001 5.108768e-001 4.374591e-001 4.106164e-001 3.806279e-001 3.545569e-001 1.329490e-001
<GCONST> 1.148683e+002
<TRANSP> 5
 0.000000e+000 1.000000e+000 0.000000e+000 0.000000e+000 0.000000e+000
 0.000000e+000 5.532520e-001 4.467480e-001 0.000000e+000 0.000000e+000
 0.000000e+000 0.000000e+000 4.469526e-001 5.530474e-001 0.000000e+000
 0.000000e+000 0.000000e+000 0.000000e+000 6.598555e-001 3.401445e-001
 0.000000e+000 0.000000e+000 0.000000e+000 0.000000e+000 0.000000e+000
<ENDHMM>
~h "N"
<BEGINHMM>
<NUMSTATES> 5
<STATE> 2
<NUMMIXES> 2
<MIXTURE> 1 5.086018e-001
<MEAN> 39
 -2.133654e-002 -4.357300e+000 1.391723e+001 -5.551504e+000 -2.062215e+001 -7.861691e+000 -2.332932e+000 1.519874e+000 -5.168274e+000 -6.979251e+000 4.927772e-001 -9.597544e-001 5.908606e+001 -4.204752e-002 1.192065e+000 1.658091e+000 -8.636385e-001 -1.046862e+000 9.074465e-001 4.043525e-002 -1.114339e+000 -1.497739e+000 -2.082521e-001 4.307871e-001 -2.372786e-001 -5.663061e-001 -2.302163e-001 5.330575e-001 -5.046027e-001 2.421323e-001 1.152907e+000 3.746594e-001 -3.011970e-001 -5.952694e-001 8.863629e-002 3.269780e-001 -3.860795e-001 -2.149025e-001 -5.478958e-001
<VARIANCE> 39
 1.418639e+001 4.189466e+001 6.223225e+001 6.504443e+001 6.255114e+001 7.294040e+001 8.293290e+001 7.063190e+001 7.170155e+001 6.989933e+001 5.655936e+001 4.570051e+001 5.819411e+001 1.284035e+000 3.113957e+000 4.842571e+000 3.666480e+000 6.380841e+000 4.278227e+000 4.728742e+000 4.083449e+000 4.253522e+000 3.960444e+000 3.818635e+000 3.117199e+000 2.000648e+000 2.782050e-001 3.997328e-001 7.664070e-001 6.180189e-001 8.876002e-001 9.464400e-001 9.390512e-001 8.072384e-001 7.580621e-001 6.651596e-001 7.168902e-001 6.362659e-001 2.150629e-001
<GCONST> 1.340355e+002
<MIXTURE> 2 4.913985e-001
<MEAN> 39
 -2.952142e+000 -5.125739e+000 1.624176e+001 -1.725832e+001 -2.176428e+001 -3.764578e+000 -2.585348e+000 -6.613041e+000 -1.117340e+001 -1.673881e+000 -5.803699e+000 -4.008913e+000 5.809895e+001 1.322988e-001 1.387716e+000 1.288407e+000 -1.625924e+000 -4.286831e-001 1.635442e+000 -8.815002e-001 -1.594712e+000 -6.637776e-001 4.756081e-001 -5.414349e-001 -7.909722e-001 -4.906016e-001 -3.213797e-002 4.764726e-001 -7.960544e-001 9.806238e-001 9.778285e-001 -9.722336e-002 -3.852372e-001 -3.815446e-002 5.276566e-001 -2.344715e-001 8.210528e-002 1.111468e-001 -6.374407e-001
<VARIANCE> 39
 1.473339e+001 3.959671e+001 6.333798e+001 6.831743e+001 6.100191e+001 7.368667e+001 6.040593e+001 7.737729e+001 6.060467e+001 7.146557e+001 6.757270e+001 4.404243e+001 8.117623e+001 1.178814e+000 3.288633e+000 3.876205e+000 4.887886e+000 4.908473e+000 4.345653e+000 4.300792e+000 4.636327e+000 4.016427e+000 4.319767e+000 3.787288e+000 3.160258e+000 2.153824e+000 2.575580e-001 4.333189e-001 7.877398e-001 6.876808e-001 8.680010e-001 9.219310e-001 8.469032e-001 8.690169e-001 6.974919e-001 6.928103e-001 6.817871e-001 5.305147e-001 2.082463e-001
<GCONST> 1.338519e+002
<STATE> 3
<NUMMIXES> 2
<MIXTURE> 1 5.239643e-001
<MEAN> 39
 -1.022192e+000 3.880698e+000 1.507223e+001 -5.603282e+000 -1.443891e+001 -4.065933e+000 -7.413753e+000 -7.139771e+000 -1.073314e+001 -3.956378e+000 -5.000966e-001 -5.127332e+000 5.279903e+001 4.766199e-002 1.174748e+000 -1.344372e+000 1.345682e+000 1.862262e+000 -1.507693e-001 -3.900144e-001 -1.005766e+000 -4.702669e-002 -4.958227e-002 -6.081980e-001 1.581093e-002 -1.288152e+000 -1.349201e-001 -3.192320e-001 -2.503181e-001 1.190105e-003 2.024452e-001 1.739013e-002 1.521780e-001 1.411995e-001 3.054142e-001 8.158749e-003 -2.443266e-001 1.724739e-001 9.673844e-002
<VARIANCE> 39
 2.037164e+001 2.016093e+001 7.936962e+001 7.229610e+001 6.535267e+001 6.742659e+001 7.947764e+001 7.289426e+001 6.212334e+001 7.309950e+001 5.873612e+001 5.732406e+001 5.030923e+001 1.570140e+000 2.556179e+000 6.882700e+000 7.609329e+000 7.807491e+000 6.514699e+000 5.195790e+000 5.954760e+000 4.885350e+000 4.945324e+000 4.383799e+000 3.555077e+000 2.397695e+000 3.290428e-001 3.385416e-001 1.438282e+000 1.282589e+000 1.231915e+000 1.169563e+000 1.008817e+000 9.332772e-001 7.535996e-001 8.277844e-001 6.782113e-001 6.575292e-001 3.219389e-001
<GCONST> 1.396907e+002
<MIXTURE> 2 4.760368e-001
<MEAN> 39
 -1.166651e+000 2.725311e+000 1.414212e+001 -1.697962e+001 -1.897705e+001 1.030057e+000 -8.176652e+000 -1.327961e+001 -7.702276e+000 -3.301646e+000 -9.827655e+000 -4.369967e+000 5.122028e+001 5.133159e-001 1.565265e+000 -1.387066e+000 1.955357e+000 1.442501e+000 -6.987531e-001 -1.029032e+000 -4.008155e-001 -4.617850e-002 -5.158470e-001 1.389988e-001 -7.040148e-002 -1.464604e+000 2.995590e-002 -1.100327e-001 -5.506647e-001 9.169952e-001 4.377986e-001 -8.176855e-001 1.971428e-001 4.350090e-001 -2.002430e-001 -9.572233e-002 3.838863e-001 6.643385e-002 -1.219871e-001
<VARIANCE> 39
 1.178266e+001 2.308743e+001 4.741801e+001 8.120855e+001 6.064868e+001 6.638329e+001 5.507262e+001 6.389105e+001 6.524985e+001 7.329434e+001 6.131255e+001 5.834288e+001 5.669368e+001 9.662287e-001 2.088900e+000 3.655581e+000 6.369707e+000 4.846035e+000 6.068703e+000 4.800412e+000 3.991217e+000 4.364825e+000 4.092421e+000 3.924444e+000 3.172982e+000 1.178944e+000 1.905682e-001 3.036083e-001 6.300624e-001 8.796102e-001 8.084564e-001 8.080724e-001 6.919920e-001 6.725809e-001 6.847228e-001 6.864969e-001 5.967184e-001 5.342783e-001 1.619035e-001
<GCONST> 1.301023e+002
<STATE> 4
<NUMMIXES> 2
<MIXTURE> 1 4.550288e-001
<MEAN> 39
 -3.387303e+000 6.270989e+000 9.740379e+000 -6.829950e-001 -5.865831e+000 -2.828731e+000 -6.167409e+000 -7.969745e+000 -7.514298e+000 -6.146045e+000 -5.017928e+000 -3.476330e+000 4.656119e+001 -8.911515e-001 -7.207228e-001 -5.858569e-001 1.289437e-001 7.883090e-001 6.114712e-001 9.131330e-001 1.137359e+000 1.082980e+000 4.970799e-001 3.461761e-001 3.048779e-001 -3.378323e-001 1.509490e-003 -2.775573e-001 -8.374894e-002 -1.402712e-001 -2.991961e-001 -1.451587e-002 1.941999e-001 2.448871e-001 1.733749e-001 2.012303e-001 2.458076e-001 1.243455e-001 1.849466e-001
<VARIANCE> 39
 1.652757e+001 1.986542e+001 4.333101e+001 5.155482e+001 6.120068e+001 4.192160e+001 4.813662e+001 5.244680e+001 4.954136e+001 4.568893e+001 4.094523e+001 3.288109e+001 5.276491e+001 1.917564e+000 2.115062e+000 5.454736e+000 4.816230e+000 7.247189e+000 4.134645e+000 4.876434e+000 5.563881e+000 5.183807e+000 4.598161e+000 3.996453e+000 3.230358e+000 2.477435e+000 3.072231e-001 4.087563e-001 9.005724e-001 8.421860e-001 1.145686e+000 7.103207e-001 8.386983e-001 8.802856e-001 8.446047e-001 7.726525e-001 6.654270e-001 5.065582e-001 4.037153e-001
<GCONST> 1.324859e+002
<MIXTURE> 2 5.449664e-001
<MEAN> 39
 9.877313e-001 8.952324e+000 6.555616e+000 -2.009372e+000 -9.918870e+000 -8.542962e+000 -1.064348e+001 -1.273551e+001 -1.052567e+001 -5.802386e+000 -5.174770e+000 -3.223599e+000 4.607186e+001 -1.161745e-001 2.262955e-001 -1.895265e-001 7.771358e-001 7.296460e-001 -2.736098e-001 -2.502962e-001 -6.341068e-002 -7.944955e-002 -2.064272e-001 -5.943414e-003 3.023993e-002 -4.814651e-001 -2.361669e-001 -3.613448e-001 3.791003e-001 -4.578452e-001 -2.221888e-001 3.615766e-001 2.251519e-001 3.100489e-001 2.411810e-001 9.944238e-003 1.214854e-002 7.237139e-003 2.571985e-001
<VARIANCE> 39
 9.223363e+000 1.079987e+001 2.761574e+001 4.808952e+001 4.062101e+001 3.793147e+001 4.125378e+001 4.485920e+001 3.535122e+001 3.786810e+001 3.306222e+001 4.125832e+001 4.280205e+001 8.208862e-001 9.525071e-001 2.380661e+000 3.321006e+000 2.838806e+000 2.816167e+000 2.472817e+000 2.684323e+000 2.448399e+000 2.089854e+000 2.217031e+000 1.839853e+000 1.008664e+000 1.475832e-001 2.157168e-001 4.421340e-001 4.444817e-001 5.296647e-001 5.160562e-001 5.582286e-001 5.540135e-001 5.023396e-001 4.315962e-001 4.181283e-001 3.528275e-001 1.554285e-001
<GCONST> 1.124989e+002
<TRANSP> 5
 0.000000e+000 1.000000e+000 0.000000e+000 0.000000e+000 0.000000e+000
 0.000000e+000 6.854662e-001 3.145338e-001 0.000000e+000 0.000000e+000
 0.000000e+000 0.000000e+000 7.606422e-001 2.393578e-001 0.000000e+000
 0.000000e+000 0.000000e+000 0.000000e+000 8.499218e-001 1.500782e-001
 0.000000e+000 0.000000e+000 0.000000e+000 0.000000e+000 0.000000e+000
<ENDHMM>
~h "P"
<BEGINHMM>
<NUMSTATES> 5
<STATE> 2
<NUMMIXES> 2
<MIXTURE> 1 4.958310e-001
<MEAN> 39
 -6.172113e+000 3.420970e+000 4.111065e+000 3.661354e+000 -5.162521e-001 7.139630e-001 7.675980e-001 2.378777e+000 3.646041e+000 4.762387e+000 4.371072e+000 3.234903e+000 4.040265e+001 -1.153756e+000 -3.002422e-001 -1.408507e-001 2.018949e-001 6.993052e-001 1.067526e+000 1.485238e+000 1.268250e+000 1.068737e+000 5.775108e-001 6.266323e-001 7.566242e-001 -1.010571e+000 3.094017e-001 -5.151319e-001 1.808168e-001 -2.760301e-001 -4.943501e-001 -4.941259e-001 -4.943817e-001 -3.792698e-001 -3.331972e-001 -3.411900e-001 -3.174189e-001 -3.522330e-001 1.016768e+000
<VARIANCE> 39
 5.886663e+000 9.155768e+000 1.584576e+001 1.628303e+001 2.480632e+001 2.724076e+001 2.714629e+001 2.434733e+001 2.756202e+001 2.622875e+001 2.415829e+001 2.002145e+001 3.599730e+001 9.531485e-001 1.029238e+000 1.537671e+000 1.295997e+000 1.752715e+000 2.364360e+000 2.371982e+000 2.546627e+000 2.345813e+000 2.439452e+000 2.615628e+000 2.192538e+000 2.361969e+000 1.614311e-001 2.296197e-001 3.912520e-001 3.140182e-001 4.537376e-001 4.971149e-001 4.504825e-001 4.646806e-001 4.848503e-001 5.599931e-001 5.176011e-001 4.164162e-001 2.905821e-001
<GCONST> 1.062970e+002
<MIXTURE> 2 5.041218e-001
<MEAN> 39
 -9.277073e+000 5.366474e-001 1.100918e+000 8.443108e-001 -1.177323e+000 5.221931e-001 3.360966e-001 1.155592e+000 1.576708e+000 1.758335e+000 1.744995e+000 1.513506e+000 3.896542e+001 -5.563925e-001 -7.359265e-001 3.726898e-001 5.266755e-002 -1.274788e-001 -2.773853e-002 4.147892e-001 3.464664e-001 3.400568e-001 -1.721632e-001 2.019514e-002 3.259685e-002 5.016125e-001 2.972341e-001 -2.148635e-001 5.500802e-001 8.828641e-002 -5.396699e-001 -5.670535e-001 -2.640929e-001 -1.798057e-001 -1.788565e-001 -2.079839e-001 -3.646905e-002 -1.245594e-001 8.352498e-001
<VARIANCE> 39
 3.794322e+000 4.382743e+000 5.840650e+000 9.775599e+000 1.300597e+001 1.382927e+001 1.287350e+001 1.227616e+001 1.104655e+001 1.081772e+001 9.733786e+000 8.993579e+000 4.379262e+001 6.472043e-001 1.021163e+000 1.705294e+000 1.093647e+000 1.618326e+000 1.923653e+000 1.632815e+000 1.607775e+000 1.664219e+000 1.840685e+000 1.560284e+000 1.421982e+000 3.666430e+000 1.662478e-001 2.038836e-001 3.483037e-001 2.645996e-001 4.644571e-001 4.436449e-001 3.793011e-001 3.589491e-001 3.656548e-001 3.500488e-001 3.166776e-001 2.817762e-001 4.069582e-001
<GCONST> 9.263492e+001
<STATE> 3
<NUMMIXES> 2
<MIXTURE> 1 5.476440e-001
<MEAN> 39
 -1.062114e+001 -3.557106e+000 7.384483e+000 3.835533e+000 -2.068833e+000 -5.925457e-001 2.648266e+000 3.708811e+000 4.903073e+000 1.204610e+000 2.576091e+000 1.867909e+000 4.666590e+001 -1.270166e-001 -1.704321e+000 1.829514e+000 2.620391e-001 -1.734819e+000 -1.441121e+000 1.118159e-001 9.852344e-002 -1.821280e-001 -9.291420e-001 -2.403633e-001 -2.724979e-001 3.051847e+000 6.616061e-001 1.128170e-001 1.301341e-001 -5.607495e-001 -1.036000e+000 -5.406299e-001 -4.171553e-001 -3.588804e-001 -6.480046e-001 9.787481e-002 4.011738e-002 -6.041059e-002 2.275987e-001
<VARIANCE> 39
 1.363158e+001 2.843943e+001 2.968468e+001 2.626314e+001 3.141867e+001 3.886540e+001 3.443125e+001 3.125053e+001 3.243935e+001 3.464790e+001 2.672567e+001 2.364792e+001 7.101518e+001 1.849143e+000 3.050213e+000 4.133456e+000 3.115935e+000 4.190566e+000 5.298779e+000 4.181236e+000 3.551042e+000 3.722877e+000 4.295948e+000 3.182315e+000 2.598340e+000 5.150466e+000 3.318816e-001 7.331578e-001 8.701986e-001 8.163950e-001 9.695317e-001 1.088741e+000 8.686398e-001 8.127192e-001 8.575255e-001 1.005778e+000 7.169449e-001 5.712302e-001 1.338596e+000
<GCONST> 1.299301e+002
<MIXTURE> 2 4.523297e-001
<MEAN> 39
 -9.301959e+000 -4.666476e+000 9.592619e+000 2.788616e+000 -7.288912e+000 -3.539927e+000 2.127901e+000 1.932930e+000 2.276512e+000 5.006910e-001 2.460859e+000 1.553939e+000 5.042171e+001 1.597659e+000 -1.347502e+000 2.322881e+000 -2.198472e+000 -4.814155e+000 -2.786560e+000 -1.330600e+000 -1.285239e+000 -2.156677e+000 -3.225445e-001 -2.304412e-001 -5.710880e-001 3.366757e+000 5.926313e-001 -7.316256e-002 -1.070543e-001 -1.093712e+000 -7.002953e-001 -2.097675e-001 -3.475476e-001 -4.317075e-002 -3.820086e-001 1.916176e-001 -1.234528e-001 -1.582848e-001 1.548085e-001
<VARIANCE> 39
 1.095977e+001 2.168301e+001 3.630584e+001 3.458788e+001 2.962563e+001 4.200756e+001 3.951209e+001 3.721001e+001 3.363949e+001 3.577887e+001 2.754569e+001 2.397476e+001 6.335416e+001 1.653854e+000 3.650193e+000 5.331004e+000 6.273128e+000 4.580234e+000 6.108857e+000 4.891959e+000 5.398004e+000 4.792547e+000 5.974389e+000 3.974847e+000 3.025230e+000 4.336122e+000 2.443064e-001 6.517356e-001 8.027940e-001 8.839957e-001 7.651786e-001 9.877245e-001 1.003668e+000 9.574520e-001 8.357698e-001 1.055121e+000 8.701004e-001 6.467340e-001 7.899304e-001
<GCONST> 1.322223e+002
<STATE> 4
<NUMMIXES> 2
<MIXTURE> 1 5.308433e-001
<MEAN> 39
 -2.785749e+000 -6.566962e+000 1.454322e+001 1.113890e+000 -1.831801e+001 -1.311380e+001 -5.826016e+000 1.141850e+000 -3.388107e+000 -3.878048e+000 4.592281e+000 9.046375e-001 5.841103e+001 2.422717e+000 -1.289606e+000 9.380504e-001 -2.479340e+000 -4.447546e+000 -2.123513e+000 -1.614765e+000 6.037619e-001 -1.013594e+000 -3.656226e-001 7.071183e-001 -3.141145e-001 2.871354e+000 -2.423940e-001 -1.086252e-001 -1.011718e+000 -5.240085e-001 1.050757e+000 1.179085e+000 6.880245e-001 4.669414e-001 8.610859e-001 4.892752e-001 -4.537126e-001 -2.332821e-001 -4.171918e-001
<VARIANCE> 39
 1.459003e+001 2.761047e+001 5.264400e+001 3.871001e+001 4.406660e+001 5.664673e+001 3.957172e+001 4.813155e+001 6.036558e+001 3.206019e+001 3.126105e+001 2.528673e+001 3.921982e+001 1.386768e+000 3.911586e+000 4.672678e+000 4.299115e+000 4.732675e+000 7.189164e+000 6.377205e+000 5.164174e+000 7.219095e+000 4.955143e+000 4.114209e+000 3.515252e+000 2.315387e+000 2.574050e-001 4.726634e-001 6.984136e-001 6.658520e-001 8.264825e-001 8.958875e-001 7.748097e-001 9.192398e-001 9.324895e-001 6.297572e-001 6.992116e-001 5.614471e-001 3.439527e-001
<GCONST> 1.313342e+002
<MIXTURE> 2 4.691498e-001
<MEAN> 39
 -4.734142e+000 -8.584959e+000 1.541293e+001 -1.081310e+001 -2.279817e+001 -1.047119e+001 1.001017e+000 -3.227653e+000 -4.706144e+000 5.879804e+000 6.231637e-001 -1.659555e-001 5.688158e+001 1.430063e+000 -2.164497e+000 8.791040e-001 -5.217200e+000 -3.471581e+000 -1.341144e+000 -1.241145e-002 -7.481315e-001 -1.752960e+000 4.786100e-001 -2.010387e+000 -1.227048e+000 3.199383e+000 -2.572416e-001 -7.959355e-002 -1.085932e+000 5.101388e-001 1.777509e+000 9.162364e-001 3.220748e-001 7.800100e-001 5.697897e-001 -9.433745e-001 -4.209886e-001 -4.615561e-002 -3.530858e-001
<VARIANCE> 39
 1.112353e+001 2.766249e+001 4.682825e+001 6.061515e+001 4.280804e+001 5.449813e+001 4.956784e+001 5.469797e+001 4.352385e+001 3.460949e+001 3.204269e+001 2.522577e+001 6.216893e+001 1.490589e+000 3.005430e+000 4.787898e+000 4.617463e+000 7.002850e+000 6.254334e+000 5.183061e+000 6.733162e+000 4.612141e+000 6.023994e+000 3.626313e+000 3.239503e+000 2.216182e+000 2.174868e-001 5.030079e-001 7.430802e-001 1.287560e+000 8.573302e-001 9.193138e-001 8.151189e-001 9.047031e-001 8.926131e-001 8.946195e-001 6.790096e-001 5.530126e-001 4.956947e-001
<GCONST> 1.329652e+002
<TRANSP> 5
 0.000000e+000 1.000000e+000 0.000000e+000 0.000000e+000 0.000000e+000
 0.000000e+000 8.268648e-001 1.731352e-001 0.000000e+000 0.000000e+000
 0.000000e+000 0.000000e+000 7.194711e-001 2.805289e-001 0.000000e+000
 0.000000e+000 0.000000e+000 0.000000e+000 5.430533e-001 4.569466e-001
 0.000000e+000 0.000000e+000 0.000000e+000 0.000000e+000 0.000000e+000
<ENDHMM>
~h "S"
<BEGINHMM>
<NUMSTATES> 5
<STATE> 2
<NUMMIXES> 2
<MIXTURE> 1 5.835242e-001
<MEAN> 39
 -1.562986e+001 1.005056e+001 -7.329134e-001 -1.464447e-001 -1.671609e-001 -8.082583e+000 -2.422024e+000 -3.630956e+000 1.620093e+000 -3.238912e+000 -1.099546e+000 -4.904993e-001 4.810725e+001 -4.898208e+000 2.076433e+000 -1.754011e+000 7.684714e-001 1.965075e+000 2.030474e+000 2.879543e+000 9.721802e-001 7.059756e-001 1.051768e+000 1.805722e+000 3.379774e-001 -8.503354e-001 3.379315e-001 -6.528122e-001 9.238892e-002 -2.505686e-001 -4.401509e-001 2.690774e-001 -9.674962e-002 3.354552e-001 1.070282e-001 1.009574e-001 -1.614566e-001 6.993222e-002 5.453056e-001
<VARIANCE> 39
 4.462490e+001 4.152366e+001 5.576700e+001 5.247100e+001 7.802964e+001 6.529189e+001 4.700032e+001 4.742863e+001 4.374502e+001 4.470370e+001 3.522109e+001 2.871767e+001 6.322466e+001 3.910603e+000 4.203664e+000 4.769364e+000 5.065122e+000 5.058536e+000 7.071846e+000 5.342174e+000 5.404377e+000 5.626084e+000 5.260024e+000 4.271222e+000 3.721293e+000 3.374210e+000 7.193133e-001 9.060977e-001 7.755862e-001 8.513775e-001 9.087393e-001 1.146164e+000 1.009774e+000 9.705491e-001 8.790939e-001 8.630875e-001 7.599483e-001 5.910984e-001 4.379668e-001
<GCONST> 1.396423e+002
<MIXTURE> 2 4.164766e-001
<MEAN> 39
 -1.309639e+000 2.669308e+000 1.936011e+000 -3.730317e+000 -7.615264e+000 -1.374026e+001 -1.057663e+001 -3.380620e+000 2.513683e+000 -5.200487e+000 -6.852635e+000 7.642688e-001 5.325645e+001 -3.860492e+000 3.623356e+000 -7.884789e-001 1.778133e+000 1.859898e+000 5.799853e-002 1.541972e+000 -8.133617e-001 7.609268e-002 3.586765e-001 1.512787e+000 1.832318e-001 -1.844828e+000 -1.321990e+000 2.696091e-001 -4.752954e-001 1.537617e-001 6.529171e-001 1.070740e+000 1.088304e+000 2.841769e-001 -3.132425e-002 3.167601e-001 5.541338e-001 -2.283075e-001 -1.590573e-001
<VARIANCE> 39
 2.296562e+001 3.923452e+001 6.510610e+001 4.499005e+001 6.617629e+001 6.300678e+001 5.987519e+001 7.384465e+001 7.620654e+001 8.640314e+001 5.866259e+001 5.586254e+001 6.415362e+001 3.968065e+000 4.229047e+000 4.230544e+000 6.015758e+000 6.916678e+000 8.882786e+000 7.309917e+000 6.776480e+000 6.000544e+000 6.703515e+000 5.698973e+000 4.344798e+000 2.314377e+000 4.067243e-001 6.535555e-001 5.737811e-001 6.695970e-001 7.276174e-001 9.757828e-001 9.033779e-001 1.108831e+000 9.320996e-001 9.980733e-001 8.612440e-001 7.287732e-001 3.332085e-001
<GCONST> 1.418027e+002
<STATE> 3
<NUMMIXES> 2
<MIXTURE> 1 4.600334e-001
<MEAN> 39
 -2.404900e+001 1.190708e+001 -4.655685e+000 3.694124e+000 5.367683e-001 -2.841531e-001 3.741139e+000 2.163060e-002 5.279037e+000 -4.544319e-002 3.237925e+000 1.450442e+000 4.823851e+001 -1.821925e+000 4.029538e-001 -2.933871e-001 3.797996e-001 4.531211e-001 9.813131e-001 1.116981e+000 5.083986e-001 5.042258e-001 3.646455e-001 5.116212e-001 2.370623e-001 7.292140e-001 8.757110e-001 -4.700575e-001 5.154459e-001 -3.277621e-001 -2.179054e-001 -5.767547e-001 -5.335406e-001 -1.440242e-001 -1.838052e-001 -2.625514e-001 -4.030813e-001 -6.776908e-002 2.104786e-001
<VARIANCE> 39
 3.980162e+001 3.628215e+001 3.792356e+001 3.913917e+001 4.997379e+001 4.479893e+001 3.311701e+001 3.002263e+001 2.141882e+001 2.185308e+001 1.850400e+001 1.494065e+001 6.247084e+001 4.494852e+000 2.802465e+000 2.975802e+000 2.196339e+000 2.511055e+000 3.454588e+000 2.871025e+000 2.872563e+000 2.786609e+000 2.604842e+000 2.150764e+000 1.663978e+000 2.561314e+000 7.609720e-001 6.183749e-001 5.103641e-001 4.828620e-001 5.555136e-001 6.912274e-001 6.135227e-001 5.743277e-001 5.101405e-001 5.305275e-001 4.539488e-001 3.641411e-001 6.010277e-001
<GCONST> 1.218842e+002
<MIXTURE> 2 5.399637e-001
<MEAN> 39
 -2.774520e+001 1.159454e+001 -2.217172e+000 2.772472e-001 3.591756e+000 -2.807833e+000 4.318470e+000 6.914372e-001 4.536864e+000 -1.250416e-001 1.968439e+000 1.220474e+000 5.163896e+001 1.558735e+000 -1.299741e+000 7.598864e-001 -6.530336e-001 -1.428448e-001 -3.847794e-001 -7.711560e-001 1.922400e-001 6.766725e-002 1.561918e-001 -2.771769e-001 -1.529566e-001 -2.777113e-001 1.410122e+000 -5.869395e-001 7.197104e-002 -2.124209e-001 -4.675481e-001 -1.915216e-001 -7.262397e-001 -2.928165e-001 -3.285151e-002 1.878992e-002 -2.630444e-001 -1.737350e-001 -2.930470e-001
<VARIANCE> 39
 3.702779e+001 3.037283e+001 4.035963e+001 4.866415e+001 5.673614e+001 4.398648e+001 3.559574e+001 3.254932e+001 3.024911e+001 2.834509e+001 2.008806e+001 1.764529e+001 5.213718e+001 7.034301e+000 3.002620e+000 2.757245e+000 2.590443e+000 3.536643e+000 4.008098e+000 3.561107e+000 3.259342e+000 2.847915e+000 2.519727e+000 2.304666e+000 2.089549e+000 3.051192e+000 8.054451e-001 6.070206e-001 6.440316e-001 6.743360e-001 7.976597e-001 7.880596e-001 9.006562e-001 6.864165e-001 6.663455e-001 6.107420e-001 5.898446e-001 4.635464e-001 4.992470e-001
<GCONST> 1.271333e+002
<STATE> 4
<NUMMIXES> 2
<MIXTURE> 1 5.130988e-001
<MEAN> 39
 -7.468408e+000 -9.700519e-001 3.317702e-001 -6.522706e+000 -1.358387e+000 -4.257892e+000 -8.228998e+000 -8.837686e-001 3.459440e+000 -1.416261e+000 -3.174982e+000 -2.045734e+000 5.098314e+001 1.805927e+000 -6.648143e-001 6.674343e-001 5.391582e-001 -3.415821e-001 1.071890e+000 -1.086386e-001 -7.112160e-001 -1.112448e+000 -5.058673e-001 -1.963987e-001 -2.802415e-001 -6.410121e-001 -7.148291e-001 6.444262e-001 -1.200073e-002 5.998795e-001 1.472388e-001 1.167271e-001 6.945290e-001 -1.476061e-001 -2.226232e-001 -1.538271e-002 3.100557e-001 2.210632e-001 -3.666761e-001
<VARIANCE> 39
 1.213645e+002 5.307371e+001 5.614201e+001 7.590008e+001 8.218474e+001 1.017859e+002 9.043029e+001 9.064697e+001 6.798185e+001 8.563224e+001 8.986883e+001 6.496961e+001 8.674118e+001 5.796274e+000 4.276678e+000 3.620135e+000 4.615963e+000 4.758395e+000 5.033499e+000 6.044722e+000 6.466267e+000 5.505669e+000 5.059287e+000 4.515354e+000 3.705678e+000 3.468796e+000 1.568435e+000 8.297913e-001 8.519143e-001 1.176859e+000 1.212506e+000 1.420940e+000 1.529651e+000 1.477574e+000 1.158371e+000 1.325776e+000 1.229344e+000 9.294649e-001 6.438295e-001
<GCONST> 1.506568e+002
<MIXTURE> 2 4.869010e-001
<MEAN> 39
 -1.113770e+001 3.580201e+000 -2.201300e+000 -3.272134e+000 -2.104522e+000 -6.021746e+000 -4.422290e+000 -1.463345e+000 5.865025e+000 5.833144e-001 -1.124049e+000 -3.995120e-001 4.887612e+001 5.355621e+000 -2.751458e+000 2.377841e-002 -2.211380e+000 -2.022481e+000 -8.653476e-001 -3.221962e+000 -1.242736e+000 -5.184723e-001 -1.887334e-001 -1.897010e+000 -9.097098e-001 8.995392e-001 -3.468649e-001 1.418622e-002 6.247334e-002 -2.675856e-002 8.984227e-002 4.357497e-001 2.118974e-001 -1.036419e-001 -4.556736e-001 -2.915972e-001 -1.418746e-001 -1.088011e-001 5.174715e-001
<VARIANCE> 39
 5.719691e+001 3.299038e+001 4.157641e+001 5.587560e+001 6.550031e+001 7.276050e+001 7.602539e+001 5.289563e+001 5.517248e+001 5.105894e+001 4.721227e+001 4.088668e+001 6.334303e+001 4.173851e+000 4.476769e+000 5.603199e+000 6.729450e+000 7.300263e+000 9.811899e+000 8.156884e+000 7.580023e+000 7.101534e+000 6.590554e+000 6.149747e+000 5.221564e+000 3.195991e+000 1.134712e+000 7.136847e-001 6.669368e-001 1.010834e+000 9.344415e-001 1.158504e+000 1.421028e+000 1.062171e+000 9.642253e-001 8.147314e-001 9.166285e-001 7.358795e-001 5.731778e-001
<GCONST> 1.455213e+002
<TRANSP> 5
 0.000000e+000 1.000000e+000 0.000000e+000 0.000000e+000 0.000000e+000
 0.000000e+000 7.190416e-001 2.809585e-001 0.000000e+000 0.000000e+000
 0.000000e+000 0.000000e+000 8.446116e-001 1.553884e-001 0.000000e+000
 0.000000e+000 0.000000e+000 0.000000e+000 7.710111e-001 2.289889e-001
 0.000000e+000 0.000000e+000 0.000000e+000 0.000000e+000 0.000000e+000
<ENDHMM>
~h "T"
<BEGINHMM>
<NUMSTATES> 5
<STATE> 2
<NUMMIXES> 2
<MIXTURE> 1 5.319068e-001
<MEAN> 39
 -7.446627e+000 1.852145e+000 1.480396e+000 1.376899e+000 -1.915522e-001 2.942646e-001 2.956317e-001 2.688658e+000 4.399617e+000 2.433111e+000 1.313379e+000 1.959360e+000 4.247102e+001 -1.737633e+000 -2.252551e-001 1.492970e-001 6.689139e-001 9.538708e-001 1.428913e+000 1.829663e+000 7.375203e-001 4.006801e-001 4.222926e-001 1.227892e+000 4.449632e-001 -9.246867e-001 -6.463218e-002 -4.664168e-001 3.891725e-002 -5.891867e-001 -3.095714e-001 -4.718334e-001 -3.273116e-001 -3.405716e-001 -6.136604e-002 -3.035210e-001 -3.009431e-001 -1.466995e-001 1.206395e+000
<VARIANCE> 39
 8.367867e+000 8.757463e+000 1.327991e+001 1.606005e+001 2.258330e+001 2.930250e+001 3.124841e+001 2.405012e+001 2.479873e+001 2.429736e+001 2.370184e+001 1.909490e+001 4.657416e+001 2.351398e+000 2.213644e+000 2.118782e+000 2.967520e+000 3.272932e+000 4.515522e+000 4.666728e+000 3.813843e+000 3.421380e+000 3.945329e+000 3.649120e+000 2.909888e+000 6.054871e+000 3.430934e-001 3.277631e-001 3.689871e-001 4.202407e-001 4.927910e-001 6.540650e-001 6.850851e-001 5.914085e-001 5.802467e-001 5.835934e-001 5.512658e-001 4.276877e-001 6.913319e-001
<GCONST> 1.176531e+002
<MIXTURE> 2 4.680659e-001
<MEAN> 39
 -1.172449e+001 -4.818038e-001 -1.041023e-001 -1.246744e+000 -1.322810e+000 -9.106823e-001 1.051686e-002 5.969710e-001 2.354512e+000 9.645874e-003 4.916957e-001 3.407879e-001 3.912734e+001 -1.544793e+000 -1.237798e+000 1.767918e-001 -3.545244e-001 5.399698e-002 1.387289e-001 5.343449e-001 -2.126539e-001 2.380294e-001 -3.584382e-001 4.117360e-001 1.120127e-001 1.611336e+000 -9.974765e-002 1.648038e-002 6.714710e-002 -1.732435e-001 -1.336506e-001 -4.423782e-001 -2.287799e-001 -1.397524e-001 7.727116e-002 -1.573889e-001 -1.365850e-001 2.172000e-002 1.081647e+000
<VARIANCE> 39
 1.300198e+001 1.368651e+001 1.440931e+001 1.729603e+001 2.415622e+001 2.229616e+001 2.330978e+001 2.114299e+001 2.165898e+001 1.992680e+001 1.867840e+001 1.304102e+001 4.780495e+001 3.971177e+000 2.881790e+000 2.738058e+000 2.727461e+000 3.398845e+000 3.897042e+000 3.716006e+000 3.778294e+000 3.601945e+000 3.162328e+000 3.094488e+000 2.347767e+000 7.578814e+000 6.245061e-001 3.851283e-001 4.331827e-001 4.641952e-001 5.823746e-001 6.471700e-001 6.504648e-001 5.881907e-001 5.696097e-001 5.755581e-001 5.119370e-001 4.023841e-001 7.832450e-001
<GCONST> 1.185062e+002
<STATE> 3
<NUMMIXES> 2
<MIXTURE> 1 5.381295e-001
<MEAN> 39
 -1.883551e+001 -4.324046e+000 1.801837e+000 -1.243999e+000 4.395047e-001 -1.188922e+000 2.751044e+000 1.317591e+000 5.149983e+000 -1.100316e+000 2.612589e+000 2.330520e+000 5.290389e+001 -1.110658e-001 2.603949e-001 1.112453e-001 4.923533e-001 2.029261e-001 -3.085917e-001 8.731622e-002 2.762057e-001 5.559936e-001 -2.930294e-002 -1.084569e-001 1.762157e-001 9.357266e-001 1.251259e+000 5.970902e-001 -2.302282e-002 1.195246e-001 -1.969940e-001 -9.184276e-002 -5.128534e-001 -4.320206e-002 -2.133780e-001 2.281940e-001 -3.106380e-001 -2.032621e-001 -1.131054e+000
<VARIANCE> 39
 2.948800e+001 4.379407e+001 3.691747e+001 4.423252e+001 4.814341e+001 4.749040e+001 4.525656e+001 4.479590e+001 4.185065e+001 3.715107e+001 3.560355e+001 3.043570e+001 6.145175e+001 5.271747e+000 3.380439e+000 2.457663e+000 2.904169e+000 3.400846e+000 3.821277e+000 3.526273e+000 3.533763e+000 3.645838e+000 3.370475e+000 3.084530e+000 2.735345e+000 9.677773e+000 7.722700e-001 7.981805e-001 7.928837e-001 8.471491e-001 9.683057e-001 1.088814e+000 1.021617e+000 1.016914e+000 9.795524e-001 8.380893e-001 8.530811e-001 7.262844e-001 1.097417e+000
<GCONST> 1.355137e+002
<MIXTURE> 2 4.618390e-001
<MEAN> 39
 -1.470117e+001 -8.488545e-001 2.453119e+000 -4.279215e-001 1.052341e-001 -8.978291e-001 2.636614e+000 1.141171e+000 4.874587e+000 2.248960e-001 2.383515e+000 2.161973e+000 4.852074e+001 1.513969e+000 -2.551336e-001 1.889943e-001 -1.195162e+000 -1.563449e+000 -1.817975e+000 -1.877968e+000 -9.883956e-001 -4.411694e-001 -3.531465e-001 -1.085649e+000 -4.505666e-001 1.323641e+000 9.391979e-001 -2.102578e-002 1.226711e-002 -4.248414e-001 -5.651791e-001 -4.831801e-001 -9.415478e-001 -3.386658e-001 -2.972248e-001 1.154902e-002 -5.429362e-001 -2.744604e-001 1.156055e-001
<VARIANCE> 39
 2.489432e+001 3.132460e+001 3.293529e+001 3.567657e+001 4.063618e+001 4.509396e+001 3.853006e+001 4.045042e+001 3.700835e+001 3.487965e+001 3.061621e+001 2.517011e+001 7.714143e+001 6.805110e+000 4.124027e+000 5.219359e+000 4.400649e+000 5.273491e+000 6.470281e+000 6.440920e+000 5.768875e+000 5.882694e+000 4.953631e+000 4.836830e+000 3.894610e+000 8.193973e+000 9.267633e-001 7.777699e-001 9.611587e-001 9.240793e-001 8.936385e-001 1.171447e+000 1.198612e+000 1.155659e+000 1.055425e+000 1.009299e+000 9.465387e-001 7.401262e-001 1.172993e+000
<GCONST> 1.402437e+002
<STATE> 4
<NUMMIXES> 2
<MIXTURE> 1 5.232685e-001
<MEAN> 39
 -4.686666e+000 -1.206382e+000 2.352929e+000 -3.716947e+000 -3.761460e+000 -6.536588e+000 -7.994356e+000 -2.547462e+000 3.439323e+000 -1.304740e-001 -4.041056e+000 -1.485794e+000 5.054708e+001 8.249260e-001 6.096014e-001 2.556913e-001 9.674014e-001 1.753704e-001 1.136829e+000 -7.158468e-002 -8.217233e-001 -9.680557e-001 -5.694510e-002 9.537967e-002 -4.317902e-001 -1.224250e+000 -6.815945e-001 1.081953e-003 1.014504e-002 2.843994e-001 2.378455e-001 5.224802e-001 7.305033e-001 1.577580e-001 -6.086050e-002 -1.070492e-001 4.349035e-001 2.377109e-001 -2.213940e-001
<VARIANCE> 39
 4.528698e+001 4.580508e+001 6.058784e+001 7.987710e+001 7.223159e+001 9.605544e+001 9.755370e+001 8.151101e+001 8.317613e+001 8.984772e+001 7.081947e+001 5.445256e+001 8.437354e+001 3.717375e+000 3.159707e+000 3.604475e+000 4.316362e+000 4.373918e+000 5.658508e+000 5.819244e+000 5.943723e+000 4.919219e+000 4.590283e+000 4.190984e+000 3.397678e+000 3.302318e+000 8.025015e-001 7.860707e-001 8.915966e-001 1.357316e+000 1.187981e+000 1.651713e+000 1.619923e+000 1.347279e+000 1.378804e+000 1.270759e+000 1.163533e+000 8.904158e-001 8.235682e-001
<GCONST> 1.477518e+002
<MIXTURE> 2 4.767207e-001
<MEAN> 39
 -6.076132e+000 -2.067478e+000 1.342632e+000 -6.114115e+000 -6.653673e+000 -9.602044e+000 -6.838452e+000 -1.193965e+000 4.562123e+000 -4.544497e-001 -3.638608e+000 2.876342e-001 5.379847e+001 3.603116e+000 -5.942134e-001 3.023877e-001 -1.775178e+000 -2.111602e+000 -1.686227e+000 -3.216254e+000 -1.185950e+000 -6.406247e-001 1.196803e-001 -2.178325e+000 -1.035035e+000 1.170083e+000 -2.918783e-001 -3.737461e-002 1.793545e-001 3.773194e-001 3.657872e-001 9.261150e-001 4.253764e-001 -1.625465e-001 -2.711279e-001 -1.860897e-002 2.780375e-001 -7.456630e-002 -3.482802e-001
<VARIANCE> 39
 2.606476e+001 3.607691e+001 5.434307e+001 5.379408e+001 6.036074e+001 6.926339e+001 6.148641e+001 7.166030e+001 6.675877e+001 6.596866e+001 5.308354e+001 4.783905e+001 7.010910e+001 3.083548e+000 4.691925e+000 8.144439e+000 6.442123e+000 6.520335e+000 8.880387e+000 8.168715e+000 9.189034e+000 8.760789e+000 7.944681e+000 6.605965e+000 5.305381e+000 3.112756e+000 7.409467e-001 7.015628e-001 7.488849e-001 1.063522e+000 9.429908e-001 1.181874e+000 1.159178e+000 1.184503e+000 1.036284e+000 9.698378e-001 1.001694e+000 8.204003e-001 9.257428e-001
<GCONST> 1.469323e+002
<TRANSP> 5
 0.000000e+000 1.000000e+000 0.000000e+000 0.000000e+000 0.000000e+000
 0.000000e+000 7.398399e-001 2.601601e-001 0.000000e+000 0.000000e+000
 0.000000e+000 0.000000e+000 7.243282e-001 2.756718e-001 0.000000e+000
 0.000000e+000 0.000000e+000 0.000000e+000 6.303778e-001 3.696223e-001
 0.000000e+000 0.000000e+000 0.000000e+000 0.000000e+000 0.000000e+000
<ENDHMM>
~h "Z"
<BEGINHMM>
<NUMSTATES> 5
<STATE> 2
<NUMMIXES> 2
<MIXTURE> 1 5.158707e-001
<MEAN> 39
 -6.064087e+000 5.327649e-001 2.026243e+001 4.603601e-001 -1.403153e+001 -8.008637e+000 -7.235561e+000 -5.594775e+000 -2.459902e+000 -1.096528e+001 1.090548e+000 2.174606e+000 5.657069e+001 -3.042523e+000 1.486235e+000 1.198627e+000 -1.360113e-001 1.944401e+000 1.688560e+000 4.836217e-001 -7.402927e-001 1.840144e-001 -7.519407e-002 -1.826240e-003 -5.124425e-001 -5.642200e-001 -2.737753e-001 -1.744427e-001 -5.778793e-001 -2.657513e-001 6.027309e-001 3.193273e-001 1.104100e-001 4.073931e-001 2.024529e-001 4.698852e-001 -1.220648e-001 -4.340437e-001 1.099031e-001
<VARIANCE> 39
 4.329236e+001 2.369560e+001 6.202327e+001 6.773439e+001 5.270026e+001 5.947197e+001 6.911480e+001 6.208346e+001 1.114361e+002 8.517976e+001 4.455538e+001 4.905063e+001 3.850706e+001 3.287611e+000 3.313787e+000 3.931120e+000 4.952629e+000 5.718271e+000 4.404288e+000 5.118624e+000 6.118715e+000 6.387089e+000 6.286586e+000 5.576502e+000 4.195827e+000 1.601592e+000 4.409270e-001 4.234287e-001 5.659951e-001 4.754500e-001 7.768887e-001 5.611429e-001 9.341620e-001 7.008718e-001 7.545859e-001 9.129513e-001 6.558653e-001 6.503741e-001 1.674602e-001
<GCONST> 1.359542e+002
<MIXTURE> 2 4.841295e-001
<MEAN> 39
 -1.270324e+000 -6.860995e+000 1.813359e+001 -7.197536e+000 -2.146661e+001 -1.011476e+001 -9.225106e+000 -1.786765e+000 -8.633965e+000 -5.912482e+000 2.833219e+000 -2.665453e+000 6.387354e+001 -1.473791e+000 1.718769e+000 1.917848e+000 5.399381e-001 2.492247e-001 8.110113e-001 1.117586e-001 -1.669860e+000 -2.191206e-001 -8.685741e-001 5.273604e-001 1.070159e-001 -9.630290e-001 -6.006374e-001 4.266201e-001 -1.642902e-001 2.041175e-001 7.048372e-001 7.164107e-002 2.744550e-001 -1.302061e-001 3.568730e-001 3.344193e-003 -2.225650e-001 -3.167307e-002 -1.857224e-001
<VARIANCE> 39
 1.470025e+001 2.835635e+001 4.616933e+001 5.930459e+001 5.224676e+001 3.710764e+001 3.637125e+001 6.002173e+001 3.553155e+001 5.115509e+001 5.716381e+001 4.179667e+001 7.446024e+001 1.897780e+000 2.265295e+000 2.809466e+000 2.446287e+000 3.506651e+000 2.696308e+000 4.725797e+000 2.857682e+000 3.472681e+000 3.180362e+000 4.388708e+000 2.338479e+000 5.834560e-001 2.204670e-001 3.158745e-001 4.293938e-001 3.290842e-001 5.250886e-001 6.355259e-001 6.459815e-001 5.438637e-001 4.240760e-001 5.265846e-001 5.232060e-001 4.103504e-001 1.142156e-001
<GCONST> 1.209326e+002
<STATE> 3
<NUMMIXES> 2
<MIXTURE> 1 4.900250e-001
<MEAN> 39
 -1.755182e+001 2.887625e+000 2.119426e+001 -4.563293e+000 -6.861512e+000 9.480214e-001 -4.662404e+000 -4.803879e+000 -9.602873e-001 -7.013231e+000 2.097121e+000 -1.409859e+000 5.492046e+001 -2.103739e+000 2.853059e-001 -3.094758e-001 -2.638816e-003 1.737263e+000 1.429481e+000 7.982326e-001 5.703239e-001 9.232786e-001 5.078704e-001 1.278763e-001 -2.796842e-001 -2.695235e-001 8.545717e-001 -3.983791e-001 -3.513488e-001 2.800132e-001 -5.216261e-001 -6.318890e-001 -1.007426e-001 8.585028e-002 -2.688063e-001 3.649066e-002 -9.136636e-002 4.851739e-002 3.181483e-002
<VARIANCE> 39
 5.453513e+001 3.091327e+001 3.878149e+001 4.855392e+001 5.834460e+001 7.241853e+001 5.492593e+001 8.409615e+001 5.111794e+001 3.275695e+001 2.969954e+001 2.752061e+001 5.933199e+001 4.245609e+000 2.344123e+000 3.707771e+000 3.773717e+000 3.822592e+000 4.316501e+000 4.005112e+000 4.151182e+000 3.930309e+000 3.624428e+000 3.268676e+000 2.775264e+000 1.570062e+000 5.328871e-001 3.925295e-001 6.045445e-001 4.552270e-001 8.039216e-001 7.345850e-001 7.896438e-001 9.119266e-001 8.048820e-001 6.005185e-001 6.438387e-001 4.495646e-001 2.496963e-001
<GCONST> 1.304462e+002
<MIXTURE> 2 5.099747e-001
<MEAN> 39
 -2.081097e+001 3.800095e+000 2.121825e+001 -2.982053e+000 -5.896780e+000 1.672393e-001 -3.500909e+000 -6.347712e+000 -3.299180e+000 -7.439906e+000 6.654741e-001 -4.647122e+000 5.588948e+001 1.275696e+000 -2.436430e-001 -3.148296e-001 2.265600e-001 -1.066562e+000 -1.597172e+000 -5.437248e-001 -3.871786e-001 -7.627893e-001 -1.111123e-001 3.529831e-002 -6.777106e-003 1.531057e-001 1.321326e+000 -2.096884e-001 -2.769863e-001 -1.231217e-002 -6.935680e-001 -7.447171e-001 -5.316833e-001 -1.484509e-001 -2.923355e-001 -5.005034e-002 3.991279e-002 2.521675e-001 -6.284593e-002
<VARIANCE> 39
 4.250889e+001 5.145928e+001 4.580316e+001 7.161216e+001 6.052848e+001 6.747482e+001 6.579665e+001 8.174730e+001 6.805610e+001 4.296443e+001 3.953136e+001 4.509668e+001 3.174060e+001 5.591092e+000 1.830155e+000 2.914043e+000 3.417529e+000 4.820776e+000 4.431033e+000 3.820444e+000 4.247391e+000 3.335261e+000 2.410058e+000 2.948682e+000 2.831599e+000 6.380205e-001 4.214156e-001 4.575870e-001 5.982088e-001 6.088039e-001 7.061862e-001 7.620984e-001 8.513572e-001 9.338929e-001 7.303157e-001 6.370230e-001 6.654620e-001 6.308725e-001 1.279321e-001
<GCONST> 1.303276e+002
<STATE> 4
<NUMMIXES> 2
<MIXTURE> 1 4.974297e-001
<MEAN> 39
 -4.261298e+000 1.477838e+000 1.628577e+001 1.905438e+000 -1.003405e+001 -6.185873e+000 -8.791977e+000 -5.055429e+000 -5.854622e+000 -5.892752e+000 2.244533e+000 -7.837450e-001 5.287131e+001 1.613981e+000 2.769156e-001 -2.460759e+000 3.899611e-001 8.520278e-001 -5.673349e-002 -3.202045e-001 -1.480006e-001 2.548682e-001 9.816838e-001 -4.780464e-001 1.470653e-001 -1.001767e+000 -3.836338e-001 9.477615e-002 -1.405920e-001 -2.900120e-001 1.878034e-001 4.635334e-001 3.370895e-001 -2.066650e-001 2.131852e-001 1.321460e-001 -1.628380e-001 -4.356628e-002 -2.631746e-003
<VARIANCE> 39
 3.930576e+001 4.003313e+001 8.631253e+001 5.532791e+001 8.218259e+001 6.387799e+001 6.422248e+001 6.196328e+001 7.619808e+001 4.132247e+001 4.261206e+001 3.486069e+001 5.960518e+001 3.463149e+000 2.212542e+000 4.537512e+000 5.384869e+000 7.072402e+000 6.951385e+000 4.552229e+000 5.618740e+000 4.585093e+000 5.090681e+000 4.397513e+000 3.624493e+000 1.800855e+000 5.546538e-001 4.403279e-001 9.705727e-001 6.728421e-001 1.065692e+000 1.001801e+000 8.019170e-001 1.041807e+000 1.037037e+000 7.967975e-001 7.449756e-001 6.343089e-001 1.953771e-001
<GCONST> 1.381634e+002
<MIXTURE> 2 5.025699e-001
<MEAN> 39
 -6.898926e+000 -3.805968e-001 1.806851e+001 -3.734670e+000 -1.616463e+001 -1.092531e+001 -7.944984e+000 -6.855062e+000 -6.954303e+000 -8.537689e+000 1.276593e+000 -3.141462e+000 5.728655e+001 3.802383e+000 -9.970307e-001 -1.968021e+000 -2.660682e-001 -1.318178e+000 -1.170343e+000 -1.541926e+000 -7.622761e-002 -3.038009e-001 5.279747e-001 -4.476238e-001 1.049691e-001 -3.585167e-001 -2.621658e-001 2.166701e-001 -5.113311e-001 -5.961095e-003 7.745364e-001 8.433982e-001 8.303743e-002 -4.081009e-002 2.967088e-001 3.303654e-001 -2.305681e-001 -6.757692e-002 -2.395681e-001
<VARIANCE> 39
 4.552117e+001 4.649471e+001 5.141667e+001 1.079482e+002 6.098109e+001 3.816542e+001 6.227450e+001 5.675878e+001 5.674693e+001 5.153008e+001 5.470383e+001 3.719577e+001 4.698260e+001 3.436352e+000 4.051572e+000 4.742567e+000 5.084899e+000 8.300520e+000 6.531872e+000 6.477921e+000 7.364165e+000 6.857623e+000 5.837259e+000 5.178220e+000 3.267879e+000 7.591787e-001 6.770694e-001 5.804113e-001 5.113809e-001 9.206000e-001 9.059319e-001 6.248583e-001 1.022217e+000 1.108137e+000 7.720371e-001 8.996027e-001 8.385995e-001 5.325145e-001 1.207744e-001
<GCONST> 1.378287e+002
<TRANSP> 5
 0.000000e+000 1.000000e+000 0.000000e+000 0.000000e+000 0.000000e+000
 0.000000e+000 7.343826e-001 2.656173e-001 0.000000e+000 0.000000e+000
 0.000000e+000 0.000000e+000 8.126422e-001 1.873578e-001 0.000000e+000
 0.000000e+000 0.000000e+000 0.000000e+000 7.503270e-001 2.496730e-001
 0.000000e+000 0.000000e+000 0.000000e+000 0.000000e+000 0.000000e+000
<ENDHMM>
~h "a"
<BEGINHMM>
<NUMSTATES> 5
<STATE> 2
<NUMMIXES> 2
<MIXTURE> 1 5.899811e-001
<MEAN> 39
 -6.993846e+000 -7.725623e+000 -2.833086e+000 -3.241608e+000 5.041361e-001 4.424054e-001 -2.606916e+000 2.338490e+000 3.972309e+000 -3.231297e+000 -2.370585e+000 -7.051677e-001 4.635639e+001 -7.869821e-002 -4.760430e-001 -5.479435e-001 2.793020e-001 9.123214e-001 5.504424e-001 2.169827e-001 9.122311e-002 2.697255e-001 -9.372952e-002 -1.654130e-001 -1.692820e-001 1.325666e-002 1.405409e-001 -5.532219e-002 2.480895e-002 -4.172965e-002 4.063495e-002 -3.221954e-002 -1.644542e-001 -2.513064e-001 -2.118717e-001 -1.541739e-001 -1.415971e-001 -6.917124e-002 2.767908e-001
<VARIANCE> 39
 5.280057e+001 5.494663e+001 5.919401e+001 6.843786e+001 8.726475e+001 7.453408e+001 7.305451e+001 7.565198e+001 7.278423e+001 7.320660e+001 6.671060e+001 5.503021e+001 1.228024e+002 1.355779e+000 3.282155e+000 3.419888e+000 3.079229e+000 4.217954e+000 3.735419e+000 4.107828e+000 4.634141e+000 4.298140e+000 4.192687e+000 4.015525e+000 3.508251e+000 2.366346e+000 3.344895e-001 6.521169e-001 6.415372e-001 6.489043e-001 7.269035e-001 7.029544e-001 8.725131e-001 8.935986e-001 8.513614e-001 8.434184e-001 7.791018e-001 6.491254e-001 5.413191e-001
<GCONST> 1.379568e+002
<MIXTURE> 2 4.099415e-001
<MEAN> 39
 -5.095631e+000 -6.257751e+000 -4.289672e+000 -2.736419e+000 2.592648e+000 2.556721e+000 -2.884652e+000 -4.308525e-001 3.301798e+000 -3.661203e+000 -4.779765e+000 -1.395535e+000 4.964176e+001 2.186214e+000 -2.598416e+000 -2.126818e+000 -1.810785e+000 8.151223e-001 4.061895e-001 -1.335578e+000 -7.438064e-001 -4.537247e-001 -1.749506e+000 -2.103108e+000 -1.240836e+000 3.101175e+000 1.176124e-001 -1.895206e-001 8.412461e-002 -2.594340e-001 -1.263190e-001 -1.010746e-001 -2.853768e-002 6.995913e-003 -8.878946e-002 -7.129232e-002 -5.213078e-003 -1.070665e-001 4.747905e-001
<VARIANCE> 39
 2.775783e+001 3.954343e+001 3.973563e+001 5.243462e+001 7.204156e+001 5.999947e+001 6.639261e+001 5.936841e+001 5.646531e+001 7.401960e+001 5.430776e+001 4.484024e+001 8.712992e+001 3.094229e+000 4.255134e+000 3.822032e+000 4.632907e+000 6.597996e+000 6.299961e+000 6.902823e+000 7.392416e+000 6.553145e+000 6.340762e+000 5.059774e+000 4.618301e+000 3.591243e+000 5.472946e-001 6.668310e-001 6.456446e-001 7.333832e-001 8.526587e-001 7.470694e-001 8.583934e-001 8.708946e-001 8.385152e-001 9.705846e-001 8.967615e-001 6.405953e-001 6.464525e-001
<GCONST> 1.411481e+002
<STATE> 3
<NUMMIXES> 2
<MIXTURE> 1 5.125962e-001
<MEAN> 39
 3.398522e+000 -1.069507e+001 -9.694081e+000 -1.032096e+001 5.820829e-001 5.518116e+000 -3.255007e+000 -2.589103e+000 6.135996e+000 -1.627114e+000 -8.097915e+000 -1.174544e+001 6.166747e+001 5.241647e-001 -8.729111e-001 -4.628096e-002 -2.672669e-001 2.189986e-001 -1.057149e-001 -5.809937e-002 3.504515e-001 3.414999e-001 -4.134797e-001 -4.827967e-001 -4.003364e-001 1.192502e+000 -4.746019e-001 5.102963e-001 6.497739e-001 4.624338e-001 -1.614682e-001 -4.234850e-001 1.331365e-002 9.098519e-002 -2.646499e-001 -1.151798e-002 3.665702e-001 7.058520e-001 -4.893149e-001
<VARIANCE> 39
 1.629741e+001 3.714894e+001 5.042060e+001 7.663792e+001 6.984295e+001 1.079831e+002 8.817606e+001 7.439398e+001 7.324886e+001 7.511411e+001 7.983257e+001 5.370380e+001 5.351649e+001 1.697627e+000 2.891853e+000 3.348924e+000 3.366637e+000 4.316472e+000 4.774336e+000 3.737518e+000 4.714309e+000 4.103043e+000 3.966190e+000 4.184702e+000 3.813506e+000 2.174935e+000 3.502174e-001 4.221338e-001 4.776269e-001 5.985591e-001 6.445251e-001 7.376397e-001 7.491856e-001 7.852436e-001 7.542718e-001 6.857451e-001 7.545570e-001 5.725552e-001 3.034706e-001
<GCONST> 1.341319e+002
<MIXTURE> 2 4.873438e-001
<MEAN> 39
 5.642126e-001 -1.567280e+001 -8.041076e+000 -8.478524e+000 3.861475e+000 1.127612e+000 -8.368104e+000 -8.333978e-001 -1.115637e+000 -1.250975e+001 -1.076746e+001 -1.193629e+000 5.952404e+001 7.707755e-001 -1.135826e+000 -1.626234e-001 -5.541543e-001 2.551810e-001 -2.014944e-001 -3.437424e-001 3.628651e-002 -6.065565e-001 -8.932536e-001 -6.057167e-001 -2.590350e-001 1.704598e+000 -3.567371e-001 8.250889e-001 5.838959e-001 2.996054e-001 -5.704665e-001 -1.975168e-001 3.995737e-001 3.045984e-002 1.371337e-001 6.016241e-001 4.466628e-001 -3.324895e-002 -5.739067e-001
<VARIANCE> 39
 1.628789e+001 4.142213e+001 5.471698e+001 5.554836e+001 9.702966e+001 8.034427e+001 1.059774e+002 8.249800e+001 7.695181e+001 8.319226e+001 5.940266e+001 4.703958e+001 6.350340e+001 1.670858e+000 3.584784e+000 3.764315e+000 3.776300e+000 6.077397e+000 4.144986e+000 4.930289e+000 4.614477e+000 3.953276e+000 4.722704e+000 3.776008e+000 3.311230e+000 3.279868e+000 3.108082e-001 5.089872e-001 5.017871e-001 5.959068e-001 7.770731e-001 6.974002e-001 8.971840e-001 9.414011e-001 7.618704e-001 7.833670e-001 7.307679e-001 5.225743e-001 3.702509e-001
<GCONST> 1.362301e+002
<STATE> 4
<NUMMIXES> 2
<MIXTURE> 1 4.357848e-001
<MEAN> 39
 2.545559e+000 -9.122660e+000 -3.732362e+000 -8.080017e+000 -3.471801e+000 -2.641539e+000 -5.053757e+000 9.156014e-001 2.561893e+000 -6.334664e+000 -9.380273e+000 -4.681764e+000 6.065261e+001 -7.800111e-001 2.749566e+000 1.743032e+000 1.661948e+000 -7.361673e-001 -7.539701e-001 -1.651807e-001 -5.233887e-001 -2.576090e-001 7.557889e-001 8.779172e-001 7.793520e-001 -2.134232e+000 -5.513464e-001 4.148893e-001 2.000169e-001 5.048227e-001 3.656478e-001 3.490333e-001 1.261800e-001 -3.505885e-001 -1.910840e-001 1.189965e-001 3.179797e-001 1.135393e-001 -6.064341e-001
<VARIANCE> 39
 1.652751e+001 4.115436e+001 5.789438e+001 5.776295e+001 7.923509e+001 9.065340e+001 7.586509e+001 7.331298e+001 8.931052e+001 1.142470e+002 7.506659e+001 6.185397e+001 7.018381e+001 1.738845e+000 2.543694e+000 3.143359e+000 3.837126e+000 5.198420e+000 5.208355e+000 5.505468e+000 5.384576e+000 5.309172e+000 5.073127e+000 4.441635e+000 3.971025e+000 2.558978e+000 3.635999e-001 5.715366e-001 5.714169e-001 6.206198e-001 8.186811e-001 9.310617e-001 9.097592e-001 9.691945e-001 9.152384e-001 9.900230e-001 9.012703e-001 6.577004e-001 3.454827e-001
<GCONST> 1.388207e+002
<MIXTURE> 2 5.641645e-001
<MEAN> 39
 1.802808e+000 -1.543941e+001 -6.258361e+000 -9.909383e+000 7.330621e-001 7.905861e-001 -6.253367e+000 -1.080899e+000 -9.451745e-002 -9.121491e+000 -9.567718e+000 -4.239676e+000 6.552692e+001 1.144210e-001 5.959226e-001 3.561496e-001 2.862373e-002 -6.512015e-001 -4.953513e-001 2.027848e-001 2.147152e-001 -1.062506e-001 -3.973581e-002 5.558718e-002 5.361348e-002 -9.002112e-002 -3.966670e-002 4.711411e-001 2.083991e-001 1.249057e-001 -2.725754e-001 -1.127464e-001 -2.988951e-002 -4.393339e-002 7.505310e-002 2.133333e-001 1.109666e-001 4.577284e-002 -3.852927e-001
<VARIANCE> 39
 1.368536e+001 3.767368e+001 4.314956e+001 5.820512e+001 6.528545e+001 7.466987e+001 8.439600e+001 6.612820e+001 7.994492e+001 8.713610e+001 6.027077e+001 5.625194e+001 6.340382e+001 4.719544e-001 1.504269e+000 1.491848e+000 1.466585e+000 2.652290e+000 2.300502e+000 2.394699e+000 2.383590e+000 2.209704e+000 2.429666e+000 2.049913e+000 1.914627e+000 6.467794e-001 9.490653e-002 2.471953e-001 2.316860e-001 2.884129e-001 3.229882e-001 3.357560e-001 4.015900e-001 4.339006e-001 3.949619e-001 3.902180e-001 3.584838e-001 3.178951e-001 1.458589e-001
<GCONST> 1.142061e+002
<TRANSP> 5
 0.000000e+000 1.000000e+000 0.000000e+000 0.000000e+000 0.000000e+000
 0.000000e+000 7.044277e-001 2.955722e-001 0.000000e+000 0.000000e+000
 0.000000e+000 0.000000e+000 6.651160e-001 3.348841e-001 0.000000e+000
 0.000000e+000 0.000000e+000 0.000000e+000 7.956538e-001 2.043462e-001
 0.000000e+000 0.000000e+000 0.000000e+000 0.000000e+000 0.000000e+000
<ENDHMM>
~h "b"
<BEGINHMM>
<NUMSTATES> 5
<STATE> 2
<NUMMIXES> 2
<MIXTURE> 1 6.220648e-001
<MEAN> 39
 4.844730e+000 -4.411240e+000 -1.628178e+000 -7.856235e+000 -7.272056e+000 -5.292648e+000 -1.299481e+001 -5.347167e+000 2.958928e+000 1.169703e+000 -5.844810e+000 -6.023547e+000 5.773924e+001 -1.650436e-001 2.158577e+000 1.965267e-001 1.246147e+000 9.793802e-001 1.016635e+000 -1.075489e-001 -1.537164e+000 -9.637507e-001 6.729425e-001 1.273238e+000 -1.142082e-001 -2.221548e+000 -7.595490e-001 3.952733e-001 4.411288e-001 5.757967e-001 3.875385e-001 1.634051e-001 7.964253e-001 2.980244e-001 -3.749193e-001 -4.724162e-001 1.276496e-001 3.745997e-001 -5.478757e-001
<VARIANCE> 39
 1.318398e+001 3.832121e+001 5.974617e+001 5.483152e+001 4.189698e+001 7.911069e+001 5.916930e+001 5.124536e+001 5.513506e+001 7.300741e+001 7.908006e+001 4.668794e+001 6.401472e+001 1.760700e+000 2.940462e+000 2.887226e+000 4.175279e+000 3.845195e+000 3.833992e+000 4.480489e+000 3.898370e+000 4.233879e+000 3.986623e+000 3.849078e+000 3.732296e+000 2.104956e+000 3.662570e-001 4.544156e-001 4.622076e-001 5.693049e-001 5.652734e-001 7.638444e-001 7.585977e-001 7.360349e-001 6.994333e-001 6.531360e-001 8.280578e-001 5.822646e-001 3.023611e-001
<GCONST> 1.314531e+002
<MIXTURE> 2 3.779285e-001
<MEAN> 39
 -1.092099e+000 -1.124584e-001 4.907980e+000 -2.812641e+000 -8.019002e+000 -7.334860e+000 -8.928727e+000 -3.640450e+000 -9.880197e-001 -4.000887e+000 -4.888146e+000 -1.059005e+000 5.190873e+001 9.965045e-001 -2.376041e-001 -2.323345e-001 -2.166461e-001 -3.349479e-001 -3.249018e-001 -1.226434e+000 -3.173597e-001 3.481137e-001 3.800413e-001 -3.118023e-001 -4.180154e-001 3.324585e-001 -4.280148e-001 1.692960e-001 1.485336e-002 1.976876e-001 4.377310e-001 3.994261e-001 3.471515e-001 -7.661136e-002 -5.049985e-002 1.777879e-001 2.617353e-001 -6.152973e-002 -2.408482e-001
<VARIANCE> 39
 3.040035e+001 5.388848e+001 5.132147e+001 6.181652e+001 7.923481e+001 7.793743e+001 6.864220e+001 6.098885e+001 6.372946e+001 6.360093e+001 5.690044e+001 3.495076e+001 9.846719e+001 3.347316e+000 3.774087e+000 4.067295e+000 4.554835e+000 6.166294e+000 5.465675e+000 6.008393e+000 5.958149e+000 5.201625e+000 4.818054e+000 4.149145e+000 3.048982e+000 4.129401e+000 7.014279e-001 7.665859e-001 5.859940e-001 8.412408e-001 1.118737e+000 1.052604e+000 1.181549e+000 1.003095e+000 8.893235e-001 8.203040e-001 8.828233e-001 5.791771e-001 6.622373e-001
<GCONST> 1.420365e+002
<STATE> 3
<NUMMIXES> 2
<MIXTURE> 1 4.977867e-001
<MEAN> 39
 -1.918933e-001 3.357184e+000 2.331400e+000 -5.545976e-001 -3.297701e+000 -3.202177e+000 -8.271091e+000 -5.864754e+000 -1.289696e+000 -1.348445e+000 -3.481835e+000 -3.573224e+000 4.828376e+001 -2.002152e+000 1.340018e+000 1.156365e+000 1.918580e+000 1.751506e+000 1.226573e+000 1.833380e+000 7.682806e-001 -4.568180e-001 -5.749086e-001 4.332145e-001 3.380702e-001 -2.416265e+000 -4.184864e-001 -6.295694e-001 9.106568e-002 -3.353781e-001 -3.081673e-002 1.550876e-002 3.387143e-001 5.764157e-001 2.969081e-001 -9.138107e-002 -7.816431e-003 1.672805e-001 4.002051e-001
<VARIANCE> 39
 2.081163e+001 2.005495e+001 3.677135e+001 3.190407e+001 2.864891e+001 4.099708e+001 3.723933e+001 3.402964e+001 3.757995e+001 4.699849e+001 4.215269e+001 2.661376e+001 5.708752e+001 2.312215e+000 3.774692e+000 4.328480e+000 4.062798e+000 3.979915e+000 5.145614e+000 4.677480e+000 4.793199e+000 5.203819e+000 4.875219e+000 5.007817e+000 3.747139e+000 3.058258e+000 5.060865e-001 4.259557e-001 5.318530e-001 5.986355e-001 6.539869e-001 6.627591e-001 7.390075e-001 6.964592e-001 7.180955e-001 7.061586e-001 6.684628e-001 5.260633e-001 4.176352e-001
<GCONST> 1.292056e+002
<MIXTURE> 2 5.021997e-001
<MEAN> 39
 3.640122e+000 3.079468e+000 -4.057384e-001 -4.362166e+000 -5.174421e+000 -3.583539e+000 -1.168040e+001 -1.042057e+001 -3.231366e+000 1.112217e+000 -8.095549e-001 -4.431901e+000 5.153625e+001 -4.243920e-001 7.370403e-001 7.298835e-001 1.049654e+000 1.852755e-001 -1.165538e-001 7.712062e-002 -3.841938e-001 -4.021179e-001 -2.854180e-001 1.784001e-001 3.037229e-001 -9.613403e-001 -1.962444e-001 -5.504427e-001 1.165362e-001 -3.183186e-002 -1.526982e-001 -1.393775e-001 1.979628e-001 5.136813e-001 3.644171e-001 -1.895121e-001 -3.123668e-001 3.986786e-002 3.639578e-001
<VARIANCE> 39
 1.715659e+001 2.602099e+001 3.928004e+001 4.367991e+001 3.078846e+001 5.171148e+001 3.828123e+001 3.580996e+001 4.791276e+001 6.518900e+001 6.774863e+001 3.872825e+001 6.979579e+001 1.357381e+000 2.894080e+000 2.282713e+000 2.908930e+000 2.669906e+000 2.993845e+000 3.072834e+000 3.184004e+000 3.542856e+000 3.186024e+000 3.249044e+000 2.715327e+000 2.474716e+000 2.421089e-001 3.623860e-001 3.842055e-001 5.470927e-001 5.594372e-001 5.195192e-001 5.800509e-001 5.532086e-001 6.171820e-001 6.618615e-001 5.885643e-001 5.480644e-001 3.528599e-001
<GCONST> 1.236807e+002
<STATE> 4
<NUMMIXES> 2
<MIXTURE> 1 5.153532e-001
<MEAN> 39
 -5.918798e+000 3.414558e+000 4.025803e+000 3.118296e+000 7.582255e-001 1.327925e+000 -1.251482e+000 -7.042609e-001 -2.033215e-001 -1.631260e+000 -2.060278e+000 -1.752422e+000 4.200474e+001 -1.100183e+000 -6.580711e-001 2.248657e-001 8.694842e-002 3.989536e-001 4.816234e-001 8.762607e-001 9.215271e-001 6.304618e-001 2.344289e-001 5.521331e-001 4.596018e-001 -3.031477e-001 2.998011e-001 -3.961105e-001 -1.104280e-001 -5.049366e-001 -5.011154e-001 -4.718244e-001 -5.120131e-001 -2.235074e-001 1.171472e-001 1.017329e-001 2.556725e-002 1.311233e-002 7.884213e-001
<VARIANCE> 39
 1.335841e+001 1.855241e+001 2.122380e+001 1.928452e+001 1.798312e+001 2.001719e+001 2.272888e+001 2.503011e+001 2.686986e+001 2.575561e+001 2.385054e+001 1.999774e+001 4.591891e+001 2.093344e+000 2.250339e+000 2.448824e+000 2.244466e+000 2.558162e+000 2.799747e+000 3.229564e+000 2.948863e+000 3.038836e+000 2.951411e+000 2.715459e+000 2.150793e+000 3.329401e+000 3.054799e-001 4.175824e-001 5.555946e-001 4.423057e-001 5.169160e-001 5.438589e-001 5.449194e-001 5.093097e-001 6.004630e-001 5.835391e-001 5.308291e-001 4.303589e-001 4.170476e-001
<GCONST> 1.151929e+002
<MIXTURE> 2 4.846031e-001
<MEAN> 39
 -4.539706e+000 -1.855729e+000 5.168531e+000 -2.909841e-001 -3.879002e+000 -4.445035e+000 -6.792486e+000 -2.551064e+000 6.334968e-001 -1.826803e+000 -1.382671e+000 -1.691121e+000 4.980946e+001 4.041829e-001 -5.520820e-001 7.045201e-001 -5.115155e-001 -1.249160e+000 -1.253359e+000 -1.211826e+000 -4.210387e-001 1.260922e-001 -1.459579e-001 -1.622202e-001 6.004048e-002 1.587650e+000 8.088391e-002 2.488115e-001 -8.863074e-003 -5.357501e-002 -8.132797e-002 1.147149e-001 5.766616e-003 -1.233222e-001 -1.241392e-001 -3.532948e-002 -1.468566e-001 -2.223838e-002 -1.321969e-001
<VARIANCE> 39
 4.918729e+001 4.968984e+001 4.799078e+001 3.973521e+001 5.885892e+001 5.653439e+001 6.676363e+001 6.425603e+001 5.852805e+001 5.195710e+001 4.374883e+001 3.607489e+001 8.281824e+001 3.591882e+000 4.003453e+000 4.343168e+000 4.131296e+000 5.868345e+000 5.320584e+000 6.354465e+000 5.071982e+000 5.209154e+000 4.596823e+000 4.283198e+000 3.417977e+000 4.558744e+000 6.587662e-001 7.984608e-001 7.533216e-001 8.047112e-001 1.049987e+000 1.017074e+000 1.219923e+000 9.967009e-001 9.724362e-001 8.472943e-001 7.956964e-001 6.507892e-001 7.885584e-001
<GCONST> 1.411791e+002
<TRANSP> 5
 0.000000e+000 1.000000e+000 0.000000e+000 0.000000e+000 0.000000e+000
 0.000000e+000 5.110121e-001 4.889879e-001 0.000000e+000 0.000000e+000
 0.000000e+000 0.000000e+000 5.862600e-001 4.137400e-001 0.000000e+000
 0.000000e+000 0.000000e+000 0.000000e+000 7.674099e-001 2.325901e-001
 0.000000e+000 0.000000e+000 0.000000e+000 0.000000e+000 0.000000e+000
<ENDHMM>
~h "c"
<BEGINHMM>
<NUMSTATES> 5
<STATE> 2
<NUMMIXES> 2
<MIXTURE> 1 4.380464e-001
<MEAN> 39
 -1.030973e+001 1.343954e+000 1.135810e+001 -3.926093e+000 -5.315631e+000 -3.116630e+000 -5.585145e+000 -6.148483e-001 6.139938e-001 -4.916528e+000 -6.075912e-001 4.221491e-001 5.024570e+001 -2.975598e+000 8.422748e-001 -8.513957e-001 2.946149e-001 2.595071e+000 2.148029e+000 1.936027e+000 1.138309e+000 1.156513e+000 1.371119e+000 1.491371e+000 6.865084e-001 -2.515270e+000 4.990610e-001 -4.273756e-001 -8.786077e-001 -4.643830e-002 -6.696263e-002 5.123378e-002 -2.177781e-003 3.077609e-002 1.479403e-001 4.828636e-001 -5.505892e-002 -1.454925e-001 -3.831033e-002
<VARIANCE> 39
 5.155556e+001 3.028993e+001 5.188099e+001 4.827391e+001 7.174308e+001 6.515456e+001 7.637859e+001 6.138734e+001 6.164551e+001 5.253797e+001 4.259844e+001 3.223441e+001 6.855711e+001 5.469519e+000 3.659090e+000 6.780997e+000 4.651464e+000 5.545957e+000 5.392859e+000 5.581196e+000 5.374685e+000 5.236982e+000 5.774516e+000 4.547772e+000 3.353714e+000 3.431328e+000 8.407984e-001 5.673349e-001 9.416943e-001 7.863976e-001 1.294426e+000 1.130736e+000 9.982401e-001 9.706701e-001 1.020551e+000 1.025818e+000 8.830156e-001 6.735958e-001 5.531021e-001
<GCONST> 1.421515e+002
<MIXTURE> 2 5.619215e-001
<MEAN> 39
 -9.851706e+000 6.353081e-001 2.323719e+000 -3.480491e-001 -2.913982e-001 1.611536e+000 2.414443e-002 2.380085e+000 3.384937e+000 1.595013e+000 1.883791e+000 1.697032e+000 3.999123e+001 -1.055196e+000 -6.787821e-001 -2.554327e-002 -4.527181e-001 5.785795e-001 8.871587e-001 3.785180e-001 3.954152e-001 4.217708e-001 3.971387e-001 3.972440e-001 1.050076e-002 -1.295951e-001 -5.027115e-001 -1.185786e-001 7.884897e-001 -5.743287e-001 -2.999082e-001 -1.573435e-001 -4.369003e-001 -2.499609e-001 -1.259499e-001 -4.253334e-001 -1.009401e-001 -1.504511e-001 1.146141e+000
<VARIANCE> 39
 8.054214e+000 9.466887e+000 1.440155e+001 1.726292e+001 2.158248e+001 2.247023e+001 2.418410e+001 2.255231e+001 2.026749e+001 1.841836e+001 1.622410e+001 1.364886e+001 4.446192e+001 2.821385e+000 1.794998e+000 4.079546e+000 3.450959e+000 3.117621e+000 3.104497e+000 3.616700e+000 2.982120e+000 2.762578e+000 2.949385e+000 2.152601e+000 1.758079e+000 4.621966e+000 5.919360e-001 3.338626e-001 4.762174e-001 4.612493e-001 5.568179e-001 5.537238e-001 5.590863e-001 5.230339e-001 5.237466e-001 4.884650e-001 4.430734e-001 3.476833e-001 4.645768e-001
<GCONST> 1.134607e+002
<STATE> 3
<NUMMIXES> 2
<MIXTURE> 1 4.211358e-001
<MEAN> 39
 -2.040272e+001 -3.355200e-001 8.482746e+000 -8.093369e+000 3.357544e+000 3.660865e+000 -2.128689e+000 3.948518e+000 4.173992e+000 2.274601e-001 3.900246e+000 9.790566e-001 4.842213e+001 -3.842773e+000 2.037237e-001 1.652604e+000 -1.919909e+000 1.312979e-001 8.706248e-001 -1.247020e-001 -2.162403e-001 2.688502e-001 -4.180205e-001 4.364030e-001 -9.703375e-002 2.963159e+000 2.384567e-001 2.333995e-001 1.132294e-001 4.831695e-001 -6.657205e-001 -2.509482e-001 2.193731e-001 -3.245158e-001 -1.756343e-001 -8.934245e-002 -1.971602e-001 3.591678e-002 1.345754e-001
<VARIANCE> 39
 3.797689e+001 4.997302e+001 3.367364e+001 3.849379e+001 3.986483e+001 4.650597e+001 4.159652e+001 3.288293e+001 3.199238e+001 2.801809e+001 2.121500e+001 1.808451e+001 5.113557e+001 3.118879e+000 3.423736e+000 3.470754e+000 3.440053e+000 3.386012e+000 3.142967e+000 3.114858e+000 2.914557e+000 2.772242e+000 2.577181e+000 2.173051e+000 1.883243e+000 3.219098e+000 9.556932e-001 7.336109e-001 5.182895e-001 5.733106e-001 5.650142e-001 6.422874e-001 6.356720e-001 5.639527e-001 5.399709e-001 5.336450e-001 4.412036e-001 3.699071e-001 6.597023e-001
<GCONST> 1.247038e+002
<MIXTURE> 2 5.787777e-001
<MEAN> 39
 -2.861047e+001 -1.922995e-001 1.374393e+001 -9.960477e+000 -2.368922e+000 6.858842e+000 -1.431922e+000 -3.362693e-001 5.167170e+000 -1.160440e+000 3.323839e+000 6.980395e-001 5.472612e+001 -1.483224e+000 2.035022e-003 1.236104e+000 5.308329e-001 -1.220282e+000 -4.060432e-001 1.138082e+000 -2.428848e-001 -5.097563e-001 -1.078950e-001 1.291045e-001 2.085425e-002 1.446156e+000 1.735763e+000 -1.210457e-001 -4.551362e-001 8.359705e-001 -1.880587e-001 -8.671585e-001 -5.911779e-002 1.667887e-001 -4.107919e-001 -7.387714e-002 -2.062094e-001 -5.921585e-003 -8.536268e-001
<VARIANCE> 39
 3.334586e+001 3.835054e+001 3.707256e+001 3.746144e+001 5.277893e+001 4.342284e+001 4.318590e+001 4.105271e+001 4.020827e+001 3.063576e+001 2.743479e+001 2.181574e+001 4.119705e+001 7.197085e+000 2.930410e+000 3.155310e+000 3.534852e+000 3.681470e+000 4.277926e+000 3.441571e+000 3.730845e+000 3.418054e+000 2.984175e+000 2.717079e+000 2.138481e+000 3.516983e+000 8.865798e-001 6.375945e-001 6.246389e-001 5.630543e-001 8.977988e-001 7.092356e-001 8.239343e-001 6.912867e-001 6.902843e-001 6.236348e-001 5.754634e-001 4.520843e-001 4.456136e-001
<GCONST> 1.289959e+002
<STATE> 4
<NUMMIXES> 2
<MIXTURE> 1 6.162769e-001
<MEAN> 39
 -2.147034e+001 -3.381746e+000 1.148384e+001 -2.123760e+000 -2.601667e+000 1.534615e+000 2.155549e+000 3.719768e+000 3.349159e+000 -1.755559e+000 3.920810e+000 2.297976e+000 5.000140e+001 2.297415e+000 -9.403586e-002 -1.022989e+000 1.060179e+000 2.948063e-001 -4.939622e-001 -5.851218e-002 1.575587e-001 -2.173258e-001 9.576023e-002 -3.761323e-001 -5.794973e-002 -1.508163e+000 5.310563e-001 2.244826e-001 -2.248820e-001 -1.437938e-001 4.314697e-002 8.097539e-003 -3.896104e-001 -2.989845e-001 -9.853102e-002 -3.575782e-002 -2.346029e-001 -1.600643e-001 -2.019567e-001
<VARIANCE> 39
 6.880569e+001 3.919442e+001 4.534824e+001 4.221870e+001 4.569139e+001 4.235641e+001 4.218903e+001 4.358549e+001 4.257325e+001 3.878397e+001 3.154021e+001 2.454494e+001 8.075697e+001 4.040759e+000 2.310550e+000 2.907834e+000 2.802365e+000 2.999199e+000 3.622444e+000 3.274601e+000 3.188053e+000 3.061762e+000 2.963017e+000 2.528745e+000 2.104916e+000 2.378293e+000 1.169674e+000 4.263814e-001 5.925023e-001 4.704570e-001 5.766524e-001 6.227133e-001 7.523574e-001 6.449389e-001 6.268723e-001 6.008775e-001 5.455285e-001 4.283150e-001 6.162558e-001
<GCONST> 1.278433e+002
<MIXTURE> 2 3.836486e-001
<MEAN> 39
 -1.215615e+001 2.610391e-001 1.280759e+001 -2.738240e+000 -7.625967e+000 -3.985595e+000 -3.395055e+000 -2.127516e+000 -1.673010e+000 -4.128210e+000 -4.443048e-001 -1.023014e+000 5.173174e+001 5.074814e+000 5.818206e-001 -7.441767e-001 5.303203e-001 -1.866032e+000 -2.293416e+000 -2.163031e+000 -1.621829e+000 -1.777566e+000 -1.033966e+000 -1.638201e+000 -7.335624e-001 -5.701120e-001 -1.978961e-001 -3.281100e-002 -3.909820e-001 -2.914626e-001 2.015376e-001 3.085952e-001 -6.624991e-002 -4.085993e-002 1.429341e-001 1.575757e-001 -1.386332e-002 4.109132e-002 1.232566e-001
<VARIANCE> 39
 7.982678e+001 3.619351e+001 4.830191e+001 5.328986e+001 7.758403e+001 6.840848e+001 6.130589e+001 5.705214e+001 6.020721e+001 4.709112e+001 4.019471e+001 2.934339e+001 7.297102e+001 4.687040e+000 4.176470e+000 4.930661e+000 4.978627e+000 7.630476e+000 6.578175e+000 5.837887e+000 6.299295e+000 5.488455e+000 5.470781e+000 4.768983e+000 3.426775e+000 2.059312e+000 1.777207e+000 6.413921e-001 7.380127e-001 7.700146e-001 1.413106e+000 1.371120e+000 1.283373e+000 1.155283e+000 1.059302e+000 9.245740e-001 8.335989e-001 6.238101e-001 4.818116e-001
<GCONST> 1.433785e+002
<TRANSP> 5
 0.000000e+000 1.000000e+000 0.000000e+000 0.000000e+000 0.000000e+000
 0.000000e+000 8.289802e-001 1.710198e-001 0.000000e+000 0.000000e+000
 0.000000e+000 0.000000e+000 7.666361e-001 2.333639e-001 0.000000e+000
 0.000000e+000 0.000000e+000 0.000000e+000 8.180630e-001 1.819370e-001
 0.000000e+000 0.000000e+000 0.000000e+000 0.000000e+000 0.000000e+000
<ENDHMM>
~h "d"
<BEGINHMM>
<NUMSTATES> 5
<STATE> 2
<NUMMIXES> 2
<MIXTURE> 1 5.230206e-001
<MEAN> 39
 -6.825265e+000 2.834239e+000 4.694699e+000 3.343139e+000 2.878444e-001 1.694426e+000 -8.228016e-002 4.693955e-001 8.480885e-001 -9.498298e-001 -1.127989e+000 -7.617733e-001 4.220629e+001 -1.353410e+000 -1.254914e+000 1.574289e-002 -7.436051e-001 5.426039e-001 9.244420e-001 7.609888e-001 6.596555e-001 5.195401e-001 4.890352e-001 9.915485e-001 3.869724e-001 3.223202e-001 1.202576e-002 -5.575907e-001 4.730807e-001 -6.006342e-001 -7.756082e-001 -5.516819e-001 -4.561684e-001 -2.250755e-001 -1.169420e-001 -2.544180e-001 8.774052e-002 1.157420e-001 1.208319e+000
<VARIANCE> 39
 9.704503e+000 1.363772e+001 2.020187e+001 1.660051e+001 1.826949e+001 1.760226e+001 1.851476e+001 2.094516e+001 2.155068e+001 2.019682e+001 1.939759e+001 1.630844e+001 4.990126e+001 1.713689e+000 3.913344e+000 3.335060e+000 3.674295e+000 4.414028e+000 3.445470e+000 3.458994e+000 3.686253e+000 3.551349e+000 3.371828e+000 3.035325e+000 2.478847e+000 5.672223e+000 2.938079e-001 4.971060e-001 5.562325e-001 5.070001e-001 6.860454e-001 6.284684e-001 5.542879e-001 6.360418e-001 6.355995e-001 5.391629e-001 4.903765e-001 4.395001e-001 6.083604e-001
<GCONST> 1.175911e+002
<MIXTURE> 2 4.769392e-001
<MEAN> 39
 -3.608102e+000 1.817566e+000 6.759387e+000 8.711751e-001 -5.591421e+000 -3.790255e+000 -6.208524e+000 -3.594642e+000 -2.224539e+000 -6.139184e+000 -5.589973e+000 -2.666826e+000 4.609628e+001 -2.009250e+000 -6.458264e-002 4.372529e-001 5.938780e-001 1.910772e+000 1.698883e+000 1.138376e+000 6.284093e-001 2.533541e-001 3.237363e-001 1.167747e+000 -6.509680e-002 -1.268128e+000 -7.962214e-002 -8.103796e-001 1.287840e-002 -7.348705e-001 -5.119656e-001 -1.736281e-001 3.208135e-002 1.268534e-001 1.850745e-001 1.901839e-001 3.545154e-001 2.348505e-001 1.063191e+000
<VARIANCE> 39
 1.669813e+001 2.823059e+001 3.432629e+001 3.430250e+001 4.207950e+001 3.589545e+001 3.523639e+001 4.463680e+001 4.880762e+001 3.910487e+001 3.367295e+001 2.940526e+001 6.942137e+001 2.635673e+000 9.557773e+000 5.014550e+000 7.104931e+000 7.870895e+000 6.133143e+000 6.024001e+000 7.367967e+000 6.072185e+000 5.727757e+000 5.576204e+000 4.324759e+000 8.457420e+000 4.262872e-001 7.973587e-001 6.157990e-001 7.643463e-001 1.196156e+000 9.969111e-001 8.965746e-001 8.879215e-001 8.398599e-001 7.558435e-001 7.289294e-001 6.351513e-001 7.196088e-001
<GCONST> 1.381751e+002
<STATE> 3
<NUMMIXES> 2
<MIXTURE> 1 5.345632e-001
<MEAN> 39
 -1.359317e+001 -6.197781e+000 8.296350e+000 -2.127687e+000 -2.346634e+000 1.910049e+000 -3.555940e-003 1.756948e+000 3.600383e+000 -2.404364e+000 2.735077e+000 1.933383e+000 5.025355e+001 -1.076166e+000 -9.027808e-001 9.906148e-001 -5.656444e-001 -2.224791e-001 -1.827631e-001 8.550565e-002 4.331884e-001 5.408269e-001 -3.441952e-001 6.527395e-001 4.755877e-001 1.903174e+000 8.389960e-001 8.055897e-001 -7.153533e-002 2.607068e-001 -3.613377e-001 -6.644927e-001 -5.310954e-001 -4.558410e-001 -4.106157e-001 -1.167666e-001 -5.604228e-001 -2.831425e-001 -1.847989e-001
<VARIANCE> 39
 4.262485e+001 5.370954e+001 4.486863e+001 4.976542e+001 5.185686e+001 5.542464e+001 5.455366e+001 5.089845e+001 4.642027e+001 4.500581e+001 3.678183e+001 2.713030e+001 7.438480e+001 4.272295e+000 7.147585e+000 4.383379e+000 5.346190e+000 4.668141e+000 4.709855e+000 5.081191e+000 5.361570e+000 4.857229e+000 4.293036e+000 4.679658e+000 3.077318e+000 7.103130e+000 5.804212e-001 1.195545e+000 9.132329e-001 9.172868e-001 1.099341e+000 1.145216e+000 1.037747e+000 1.017092e+000 9.491995e-001 9.964653e-001 8.323015e-001 6.246073e-001 1.080987e+000
<GCONST> 1.416197e+002
<MIXTURE> 2 4.654025e-001
<MEAN> 39
 -1.259797e+001 -5.629207e+000 1.100362e+001 -5.793292e+000 -4.022606e+000 -2.588606e-001 -3.099070e+000 -8.217002e-001 -1.248166e+000 -3.827391e+000 2.580474e+000 -1.133902e+000 5.447736e+001 6.455138e-001 -4.862550e-001 1.681705e+000 -1.161764e+000 -2.776571e+000 -2.651897e+000 -1.788615e+000 -6.478140e-001 -6.952503e-001 -8.446544e-001 2.768434e-001 3.641005e-001 3.049179e+000 1.319324e+000 8.878205e-001 -3.153667e-001 7.191137e-001 -7.546541e-001 -8.123441e-001 -5.524827e-001 -3.288609e-001 -4.921849e-002 -1.021833e-001 -7.804895e-001 7.887592e-002 -6.384651e-001
<VARIANCE> 39
 3.154070e+001 4.888574e+001 5.162508e+001 5.698035e+001 6.021067e+001 6.762509e+001 6.107584e+001 5.714897e+001 5.272750e+001 5.105627e+001 4.433511e+001 3.525172e+001 6.627114e+001 3.587170e+000 5.073568e+000 4.042038e+000 4.828448e+000 5.316198e+000 5.096385e+000 4.716023e+000 5.917532e+000 5.589865e+000 4.763848e+000 5.114264e+000 3.470625e+000 3.978762e+000 4.435848e-001 1.161767e+000 1.069683e+000 1.117360e+000 1.419317e+000 1.351176e+000 1.204324e+000 1.198447e+000 1.144440e+000 1.233766e+000 1.113413e+000 8.897440e-001 8.419645e-001
<GCONST> 1.436577e+002
<STATE> 4
<NUMMIXES> 2
<MIXTURE> 1 5.183636e-001
<MEAN> 39
 -4.207832e+000 -1.494548e+000 1.117078e+001 3.702086e-001 -1.032176e+001 -7.317229e+000 -7.490667e+000 -1.735499e+000 9.430271e-002 -4.797984e+000 -1.170480e+000 1.217296e+000 5.428411e+001 5.824459e-001 1.514822e+000 -1.235895e+000 1.053211e+000 1.020719e+000 4.369922e-001 2.593335e-001 -7.569004e-001 -7.556384e-002 5.287630e-001 -7.708924e-001 -5.974577e-001 -1.598789e+000 -3.817241e-001 1.181246e-001 -3.380855e-001 -1.316671e-001 6.560985e-001 5.996123e-001 4.189637e-001 -1.346925e-001 -1.536530e-001 1.916992e-001 3.768190e-002 -2.132617e-001 -4.194325e-001
<VARIANCE> 39
 4.569046e+001 3.751324e+001 5.755050e+001 4.601131e+001 9.056783e+001 7.165243e+001 7.211191e+001 7.050801e+001 7.083635e+001 5.110843e+001 4.252821e+001 3.678599e+001 8.261043e+001 3.033560e+000 3.215034e+000 3.869266e+000 3.628747e+000 5.945456e+000 5.709101e+000 4.895308e+000 5.152558e+000 4.788144e+000 3.847505e+000 3.574180e+000 2.891002e+000 2.939108e+000 6.346216e-001 7.503589e-001 8.589181e-001 7.072526e-001 1.462716e+000 1.280618e+000 1.098951e+000 1.159726e+000 1.132317e+000 8.541857e-001 7.748536e-001 6.560088e-001 6.592879e-001
<GCONST> 1.407832e+002
<MIXTURE> 2 4.816072e-001
<MEAN> 39
 -4.477893e+000 -3.251935e+000 1.331187e+001 -4.874784e+000 -1.426485e+001 -9.753418e+000 -9.522556e+000 -2.960624e+000 -2.584213e+000 -6.142202e+000 -7.754508e-001 5.537840e-001 5.787677e+001 2.487235e+000 4.017163e-001 5.399491e-002 3.562320e-001 -2.643585e+000 -2.145451e+000 -1.736441e+000 -5.211501e-001 -7.654475e-002 -3.172052e-001 -1.181171e+000 2.211945e-001 4.903250e-001 -7.684308e-002 3.467176e-001 -7.045096e-001 4.870789e-001 9.379671e-001 8.287771e-001 4.852061e-001 -5.490929e-002 1.841354e-001 2.791678e-001 -2.660716e-001 -2.514760e-001 -9.715159e-001
<VARIANCE> 39
 2.552903e+001 3.719766e+001 5.340273e+001 6.061250e+001 6.949483e+001 5.856390e+001 5.557191e+001 6.952730e+001 7.349467e+001 5.312237e+001 4.628600e+001 3.797654e+001 6.825936e+001 2.762619e+000 4.742517e+000 5.131720e+000 4.882206e+000 6.716016e+000 6.911286e+000 5.865382e+000 6.737610e+000 6.329535e+000 6.156147e+000 5.595002e+000 4.470067e+000 2.702557e+000 5.990621e-001 8.746225e-001 7.261178e-001 8.353076e-001 1.332628e+000 1.113642e+000 9.053170e-001 1.211886e+000 1.048542e+000 9.146153e-001 8.794470e-001 7.226587e-001 5.550649e-001
<GCONST> 1.425930e+002
<TRANSP> 5
 0.000000e+000 1.000000e+000 0.000000e+000 0.000000e+000 0.000000e+000
 0.000000e+000 7.080484e-001 2.919516e-001 0.000000e+000 0.000000e+000
 0.000000e+000 0.000000e+000 6.262512e-001 3.737488e-001 0.000000e+000
 0.000000e+000 0.000000e+000 0.000000e+000 6.637988e-001 3.362012e-001
 0.000000e+000 0.000000e+000 0.000000e+000 0.000000e+000 0.000000e+000
<ENDHMM>
~h "f"
<BEGINHMM>
<NUMSTATES> 5
<STATE> 2
<NUMMIXES> 2
<MIXTURE> 1 6.437986e-001
<MEAN> 39
 5.887470e-001 -3.294091e+000 -1.541943e+000 -3.658800e+000 -1.421749e+000 -5.511045e-001 -4.459088e+000 -2.800158e+000 1.404348e+000 -4.028104e+000 -8.169487e+000 -5.282934e+000 5.534660e+001 -3.111701e+000 1.829822e+000 1.295771e+000 2.350638e+000 1.638542e+000 1.703024e+000 1.853574e+000 4.977778e-001 3.255831e-001 3.735100e-001 1.914351e+000 9.919865e-001 -2.608524e+000 -1.104135e+000 -2.616847e-001 2.482459e-001 8.268133e-002 -1.901540e-001 -1.684788e-001 3.761389e-001 5.287756e-001 2.678370e-001 2.437687e-001 6.312205e-001 5.104149e-001 -1.399344e-001
<VARIANCE> 39
 1.970796e+001 2.515839e+001 4.404286e+001 3.657129e+001 4.384525e+001 6.324766e+001 5.013712e+001 4.548363e+001 5.601636e+001 9.575667e+001 6.838668e+001 4.439008e+001 6.529137e+001 2.617201e+000 2.980635e+000 3.894293e+000 3.850794e+000 4.377555e+000 4.718785e+000 5.084763e+000 5.161381e+000 5.156798e+000 6.184789e+000 5.436434e+000 4.119772e+000 1.618383e+000 4.121073e-001 3.706332e-001 4.686365e-001 5.939835e-001 5.686388e-001 6.951391e-001 7.253876e-001 6.682721e-001 6.842630e-001 1.023504e+000 9.275224e-001 5.585931e-001 2.653528e-001
<GCONST> 1.326719e+002
<MIXTURE> 2 3.562012e-001
<MEAN> 39
 -3.905116e+000 -2.584589e+000 2.304123e+000 -3.151249e+000 -4.786195e+000 -5.793750e+000 -5.983697e+000 -1.527390e+000 1.439236e+000 -3.246546e+000 -4.622300e+000 -1.850872e+000 5.224891e+001 -2.084829e-001 7.235507e-002 -2.218611e-001 1.023429e-001 2.922518e-001 7.382706e-001 1.849233e-001 -1.660717e-001 3.291182e-001 -1.293752e-001 -6.690544e-002 -1.663149e-001 -2.529174e-001 -8.353193e-001 1.256543e-002 1.062221e-001 3.716447e-001 3.273894e-001 3.897390e-001 5.181197e-001 9.220802e-002 1.965821e-002 1.991589e-001 4.079368e-001 2.840582e-001 -2.774594e-001
<VARIANCE> 39
 7.527746e+001 3.971585e+001 5.313374e+001 6.106737e+001 7.802101e+001 8.352942e+001 8.262281e+001 6.413709e+001 5.935384e+001 8.610870e+001 8.424829e+001 4.287635e+001 9.294685e+001 6.014477e+000 4.173382e+000 3.457002e+000 4.717758e+000 6.140985e+000 5.994297e+000 5.715336e+000 5.705248e+000 4.904665e+000 4.532357e+000 5.031547e+000 3.275033e+000 2.840777e+000 1.428011e+000 8.242750e-001 7.432640e-001 1.132271e+000 1.232865e+000 1.281825e+000 1.429877e+000 1.258233e+000 9.656181e-001 1.216046e+000 1.442696e+000 8.053346e-001 6.379344e-001
<GCONST> 1.473348e+002
<STATE> 3
<NUMMIXES> 2
<MIXTURE> 1 4.843422e-001
<MEAN> 39
 -8.237387e+000 4.361330e-001 1.962492e+000 1.767575e+000 1.076871e+000 3.079660e+000 1.274054e+000 1.459325e+000 3.871731e+000 -2.167819e-001 -8.130504e-001 -3.978240e-001 4.981330e+001 -3.445188e+000 6.882795e-001 8.589125e-001 1.125960e+000 4.598998e-001 7.586399e-001 1.682221e+000 9.940488e-001 8.577579e-001 8.119365e-001 2.188995e+000 1.406473e+000 -1.782449e+000 2.402306e-001 -5.379788e-001 -1.758518e-001 -5.113149e-001 -4.693431e-001 -5.450988e-001 -3.706368e-001 -1.102953e-001 -5.570919e-002 -2.041209e-001 -3.133112e-001 -1.918574e-001 6.234427e-001
<VARIANCE> 39
 1.778785e+001 1.121830e+001 1.799788e+001 1.406436e+001 1.787423e+001 2.085415e+001 2.033759e+001 1.779466e+001 2.087710e+001 2.362684e+001 2.425387e+001 1.973046e+001 6.072565e+001 3.420908e+000 2.490643e+000 3.249910e+000 3.164739e+000 3.454214e+000 4.321906e+000 3.713629e+000 3.763728e+000 3.965038e+000 5.336179e+000 4.880087e+000 3.364817e+000 2.133220e+000 3.895667e-001 2.854622e-001 3.595103e-001 4.131905e-001 4.507153e-001 4.680191e-001 5.446359e-001 5.162058e-001 4.979890e-001 5.677832e-001 5.799274e-001 4.364066e-001 2.615739e-001
<GCONST> 1.163131e+002
<MIXTURE> 2 5.156581e-001
<MEAN> 39
 -1.372963e+001 -2.262198e+000 2.798625e+000 7.499394e-001 8.549158e-002 1.107282e+000 8.890455e-001 4.841520e-002 3.113714e+000 -2.868949e+000 -6.353453e-001 -1.417524e+000 4.855331e+001 -3.684811e+000 -1.124020e-001 4.950725e-001 9.064032e-001 -7.073711e-002 2.774292e-002 1.093249e+000 7.933777e-001 9.002120e-001 7.107987e-001 1.901335e+000 1.235632e+000 -8.279510e-001 6.463676e-001 -2.036228e-001 -2.446559e-001 -4.605249e-001 -3.980902e-001 -4.274667e-001 -4.530426e-001 -1.125874e-001 -8.596871e-002 7.979775e-002 -3.362868e-001 -9.879213e-002 4.721227e-001
<VARIANCE> 39
 3.743876e+001 2.291643e+001 2.869429e+001 2.410009e+001 3.830499e+001 4.481674e+001 3.998272e+001 3.816664e+001 4.253210e+001 4.025373e+001 3.571457e+001 2.898379e+001 6.494302e+001 4.766560e+000 3.002236e+000 3.671616e+000 3.674604e+000 4.820800e+000 5.656444e+000 4.957749e+000 5.119662e+000 4.957496e+000 6.895463e+000 5.419325e+000 3.544337e+000 1.863434e+000 6.536697e-001 4.544817e-001 5.542861e-001 5.660009e-001 7.315387e-001 7.807131e-001 7.765605e-001 8.652344e-001 9.280961e-001 9.162592e-001 8.506476e-001 6.965641e-001 2.769562e-001
<GCONST> 1.319228e+002
<STATE> 4
<NUMMIXES> 2
<MIXTURE> 1 6.081989e-001
<MEAN> 39
 -1.704612e+001 -1.571209e+000 3.280412e+000 1.971883e+000 5.022737e-002 1.352524e+000 2.836062e+000 2.527809e+000 5.013729e+000 -9.040713e-002 2.456369e+000 1.718476e+000 4.810870e+001 -1.849101e-001 -1.185549e-001 6.400038e-002 -7.903163e-003 3.562338e-002 -1.271278e-001 5.887908e-002 1.088168e-001 7.193977e-002 3.926152e-002 3.664543e-002 6.652129e-002 -1.813619e-001 6.360612e-001 -2.949006e-002 -1.596930e-002 -1.432192e-001 -7.572192e-002 -1.114437e-001 -2.819519e-001 -1.881818e-001 -1.736970e-001 -1.212418e-001 -3.241173e-001 -2.240095e-001 1.045197e-001
<VARIANCE> 39
 3.753386e+001 2.965665e+001 2.326364e+001 2.034196e+001 2.583361e+001 2.541782e+001 2.521817e+001 2.322083e+001 2.517775e+001 2.359656e+001 2.047100e+001 1.780893e+001 6.423540e+001 2.947828e+000 1.656131e+000 1.727100e+000 1.676717e+000 1.943487e+000 2.231712e+000 2.288077e+000 2.203924e+000 2.427058e+000 2.168488e+000 2.119566e+000 1.833960e+000 2.064394e+000 5.548214e-001 3.696623e-001 3.944520e-001 4.008358e-001 4.562398e-001 5.353263e-001 5.445420e-001 5.026181e-001 5.389941e-001 5.187413e-001 5.298895e-001 4.178329e-001 3.678714e-001
<GCONST> 1.137208e+002
<MIXTURE> 2 3.917656e-001
<MEAN> 39
 -1.233192e+001 -3.285140e+000 4.035945e+000 4.869284e-002 -2.766332e+000 -3.488576e+000 -1.857692e+000 -1.921308e-001 3.159905e+000 -2.154429e+000 -1.421740e+000 -7.374986e-001 4.927270e+001 2.382806e+000 3.373565e-001 2.079777e-001 -5.285121e-001 -1.127553e+000 -1.072882e+000 -1.514859e+000 -1.045115e+000 -7.707007e-001 -3.044959e-001 -1.095274e+000 -5.239261e-001 2.336208e-001 2.401748e-001 1.115652e-001 -2.185250e-002 -2.331748e-002 -1.643101e-001 1.158330e-001 -6.442677e-002 -1.438254e-001 -1.037529e-001 1.253639e-002 -1.602772e-003 2.909087e-002 1.389582e-003
<VARIANCE> 39
 8.133731e+001 3.933677e+001 3.952198e+001 4.156246e+001 5.654495e+001 6.487438e+001 6.218128e+001 4.644309e+001 4.755729e+001 5.070180e+001 4.862200e+001 3.722921e+001 7.011684e+001 6.773248e+000 3.782079e+000 4.162292e+000 4.498922e+000 5.903183e+000 6.324230e+000 6.365709e+000 5.241738e+000 4.822961e+000 4.946197e+000 4.839394e+000 3.638340e+000 3.353956e+000 1.514950e+000 6.869420e-001 6.871496e-001 8.592801e-001 1.073684e+000 1.321428e+000 1.316549e+000 1.051490e+000 9.691805e-001 9.663627e-001 1.012818e+000 7.443522e-001 5.872368e-001
<GCONST> 1.427258e+002
<TRANSP> 5
 0.000000e+000 1.000000e+000 0.000000e+000 0.000000e+000 0.000000e+000
 0.000000e+000 5.170138e-001 4.829862e-001 0.000000e+000 0.000000e+000
 0.000000e+000 0.000000e+000 5.586803e-001 4.413198e-001 0.000000e+000
